34 64
34 -0.01646001 0.22273585 0.12824757 -0.041985996 -0.123536445 -0.13052301 -0.09091828 0.13879234 -0.22741231 -0.05774419 -0.30937654 -0.1243068 0.21130781 -0.064205855 0.31236324 0.01401573 -0.061282005 0.008674142 -0.08991345 -0.28569475 0.029598905 0.025274934 -0.06597805 0.17925209 0.14406765 -0.221693 -0.029944023 -0.01914157 -0.14485313 0.039018515 0.017855328 -0.1014526 0.28850138 0.07052168 0.06945353 -0.13524412 0.33661947 0.13231169 -0.33670333 0.07202705 -0.19231947 0.025742278 -0.02463531 0.15995482 -0.2780576 -0.04526372 0.040887702 -0.014616803 -0.16635093 0.034995355 -0.335563 -0.3752598 -0.06272281 0.03489833 0.04361316 -0.23550847 0.17920676 0.11354995 -0.12659739 -0.38187137 0.15412335 -0.012203618 -0.035465475 0.1825465
1 -0.062456217 0.35142973 -0.07846008 0.075838074 -0.065458134 -0.14101137 0.11791391 0.023562124 -0.33474007 -0.19115219 -0.2612323 -0.07118235 -0.022382876 -0.010520323 0.013853264 0.07872691 0.11884609 -0.07041767 -0.26416677 -0.08258914 -0.225294 0.023370571 0.06694964 0.19200104 0.16671094 0.061913747 0.028714312 0.11248465 -0.11237448 0.042841185 0.03731545 -0.01983952 0.12985793 -0.0010063954 -0.095435254 -0.031155767 0.30619964 -0.09829018 0.07693518 0.17175706 -0.15364665 0.020044647 -0.17365023 0.34553066 -0.39465418 -0.034766592 0.04744401 0.3137004 0.011627591 0.15780228 -0.22022296 -0.07691468 -0.011248131 -0.03807954 -0.14471942 -0.2699364 0.02625707 0.21731928 -0.0012847581 0.042557295 -0.051716577 0.09505079 0.2264215 0.20988964
33 -0.013423485 0.22584553 0.13654396 -0.042285185 -0.10780881 -0.12419246 -0.10790818 0.13155209 -0.23944359 -0.034220863 -0.30020916 -0.113587685 0.20154174 -0.067272894 0.3140931 0.022862501 -0.09345334 0.038821768 -0.10174304 -0.3029412 0.04131881 0.022323182 -0.06443725 0.19350867 0.16709836 -0.26320657 -0.02381693 -0.021068614 -0.16024387 0.019288553 0.015953055 -0.10356281 0.3097506 0.09461528 0.06675508 -0.14404882 0.35095936 0.14057653 -0.3195929 0.024455002 -0.16972049 -0.013724573 -0.018192906 0.15634042 -0.2759743 -0.032214504 0.03455049 -0.057608634 -0.1716874 0.04839921 -0.35011327 -0.39896145 -0.106872484 0.033038255 0.05809243 -0.24178165 0.19281201 0.12102353 -0.124097615 -0.38049766 0.18051967 0.01367164 -0.07886497 0.12636934
3 -0.038973957 0.2548469 -0.015868146 0.005162966 -0.10153927 -0.1823782 0.022061124 0.08874134 -0.20522432 -0.15679948 -0.24673171 -0.10343311 0.13919833 -0.046194404 0.21697485 0.09215453 0.057139296 -0.06839067 -0.111778095 -0.112072594 -0.06973406 -0.02893321 -0.05443418 0.13606398 0.11051538 -0.015390752 -0.07584185 0.02235098 -0.077267356 0.0824934 -0.0064271283 -0.13489409 0.21017136 -0.06581204 -0.03816456 -0.14349817 0.2520035 0.021953207 -0.14109698 0.23100619 -0.24428584 0.11931336 -0.08774891 0.26215044 -0.31782126 -0.018054755 0.04474184 0.22027493 -0.068914324 0.092674315 -0.26413718 -0.17258236 0.06620623 0.03371018 -0.09260667 -0.25809667 0.11879936 0.104910694 -0.038590413 -0.21836351 0.010823269 0.020241499 0.1669922 0.22956306
2 -0.06772667 0.330618 -0.09297425 0.061250333 -0.15739006 -0.1360675 0.24059017 0.019970076 -0.29640996 -0.3065259 -0.33049834 -0.1507724 0.1614068 0.0077193803 0.020066319 0.009698068 0.18628556 -0.13864642 -0.1603037 -0.037594866 -0.25487792 0.05314531 0.06284741 0.093792394 0.049577806 0.17733645 -0.050759748 0.13635004 -0.078814246 0.13209338 0.057473548 -0.08581277 0.08423736 -0.07841129 0.035901535 0.025698584 0.28069496 -0.06663251 -0.080221616 0.3690361 -0.25803226 0.19394231 -0.19742075 0.32939184 -0.42629424 -0.09513776 0.013744852 0.3770499 -0.0043205465 0.14813292 -0.23679003 -0.064730674 0.12305698 -0.06122168 -0.22864293 -0.3509036 0.06849017 0.19031473 -0.052241612 -0.016355162 -0.025988247 -0.08331818 0.37594637 0.4312665
4 -0.051720403 0.28344342 -0.08089169 0.025731388 -0.1337067 -0.1358295 0.1648969 0.02727236 -0.2466589 -0.2403879 -0.30606687 -0.116958246 0.14141834 0.010652114 0.09149366 0.061936952 0.15936863 -0.10793523 -0.14948519 -0.028368894 -0.18171512 0.0024125332 0.017578501 0.10289541 0.06450146 0.12461399 -0.069412634 0.073673114 -0.06617905 0.11060453 0.050103754 -0.0975049 0.15220095 -0.061583422 0.0035472543 -0.05331369 0.23058787 -0.0477444 -0.10208921 0.3183948 -0.23724078 0.1868454 -0.14932658 0.2974331 -0.36365902 -0.077425055 0.031674504 0.32302722 -0.022646993 0.13416497 -0.23569249 -0.08934892 0.10160164 -0.01162371 -0.1756168 -0.30318218 0.08800985 0.1758231 -0.036281586 -0.090083666 -0.00089039904 -0.03075551 0.29959396 0.3242845
32 -0.0036825861 0.29668662 0.061318424 0.01562561 0.016384147 -0.20216174 -0.20470321 0.12446275 -0.22200386 -0.02576891 -0.16935544 -0.03427632 -0.0144819645 -0.10983029 0.29761985 0.14801684 -0.085450724 -0.0020798447 -0.15851839 -0.23596625 0.027623639 -0.06346989 -0.056349292 0.25349447 0.21738493 -0.22808167 0.0042173956 -0.032501817 -0.09510294 -0.027431963 -0.0340283 -0.077963 0.28152406 0.02899586 -0.1759691 -0.24262196 0.33086446 0.04045703 -0.003053189 -0.018509163 -0.12960802 -0.07977182 0.023569686 0.27771068 -0.28480855 0.036837004 0.07912264 0.07562362 -0.11717414 0.067841224 -0.2775127 -0.260269 -0.053683292 0.08284195 0.06113424 -0.1603133 0.122172594 0.094255626 0.041868147 -0.29921818 0.0053613423 0.16669543 -0.07817914 -0.011866173
9 -0.03304751 0.24477307 0.013671299 0.003025378 -0.11244646 -0.114243 0.047370397 0.085752636 -0.26805267 -0.10553178 -0.28252777 -0.08925697 0.090077534 -0.025655387 0.16824102 0.0501877 0.029187167 -0.00785936 -0.16712455 -0.17040022 -0.08191521 0.011174118 -0.033331726 0.17121926 0.16090344 -0.09570293 -0.015670232 0.06497496 -0.12850362 0.021965569 0.012651192 -0.100135975 0.20057784 0.044058565 0.019079562 -0.086578295 0.28619683 0.042250164 -0.16779265 0.12528645 -0.17151347 0.021242052 -0.12027355 0.1928659 -0.32150412 -0.048976004 0.030165197 0.15233997 -0.084543645 0.10236283 -0.2790081 -0.21123435 -0.058678214 -0.009879296 -0.059671745 -0.25257516 0.09694911 0.15607584 -0.105394654 -0.17632845 0.06510882 0.058477174 0.102055386 0.17027533
14 -0.0508602 0.28752583 -0.021165205 0.010091253 -0.0945557 -0.14701755 0.08451726 0.06370254 -0.24362738 -0.19361447 -0.29363567 -0.11550296 0.136708 -0.012008367 0.14852545 0.056966696 0.08689299 -0.09782455 -0.13835101 -0.10426301 -0.11575452 0.0065928036 -0.012119591 0.12270948 0.096503206 0.025896382 -0.06538191 0.04268875 -0.075624876 0.08496052 0.03354233 -0.09171817 0.17910251 -0.04878036 -0.0023454742 -0.09960863 0.2706936 -0.012290078 -0.11861348 0.24159004 -0.21897507 0.13496172 -0.11835363 0.28516108 -0.3315651 -0.05968061 0.04527941 0.2354687 -0.05947507 0.10634305 -0.24637611 -0.15041336 0.06683612 -0.0017490161 -0.10550266 -0.26309836 0.09473507 0.1447274 -0.034578633 -0.16668595 0.004677821 -0.028972026 0.18988343 0.2792341
24 0.02911409 0.25591365 0.149444 -0.05500265 -0.020360248 -0.1946521 -0.2787208 0.16326885 -0.1493505 0.0013823514 -0.24536447 -0.07281942 0.17573917 -0.1330151 0.4513035 0.082425885 -0.17088036 0.06097228 -0.097965 -0.33788618 0.154251 -0.036685493 -0.08470429 0.23469892 0.1562937 -0.36704436 -0.004104325 -0.12308752 -0.109920025 -0.012441844 -0.0151966 -0.10866119 0.40869558 0.07610619 -0.046404663 -0.28913954 0.3658493 0.13173905 -0.26918256 -0.020773416 -0.2063597 -0.03283061 0.07685643 0.222696 -0.2342009 0.033372052 0.071064845 -0.09714874 -0.2101475 0.0024045787 -0.35652676 -0.456506 -0.05442263 0.11322481 0.115485534 -0.18688138 0.24418052 0.077108346 -0.033468258 -0.54395247 0.15873706 0.06493557 -0.20215374 0.02379971
6 -0.09478999 0.334477 -0.22100578 0.09036606 -0.09565058 -0.08872678 0.24772285 0.01712559 -0.53122807 -0.09261783 -0.22393207 0.022182735 -0.43478626 0.04528604 -0.15187284 0.20687401 0.18971376 0.026171857 -0.50079143 -0.10470883 -0.37260377 -0.0198474 0.040372785 0.3476869 0.40855482 0.039237097 0.13013712 0.3274337 -0.19495732 -0.15756845 -0.040708568 -0.026453389 0.02831854 0.19044003 -0.18605691 -0.017818647 0.27980882 -0.12621176 0.25670975 0.01756045 -0.10425678 -0.20291448 -0.35071236 0.2845833 -0.48812 -0.03539527 0.011774944 0.5299912 0.116882436 0.22647968 -0.23044561 0.04275945 -0.28816447 -0.15539865 -0.24394837 -0.23757158 -0.11737457 0.29931942 -0.1643358 0.33311564 -0.13770713 0.45983893 0.34534043 -0.043222632
7 -0.09324363 0.3350136 -0.23040433 0.10192321 -0.117444426 -0.109458305 0.26137742 0.007595617 -0.5360091 -0.12216853 -0.22507145 0.016493546 -0.42253563 0.0521489 -0.16768065 0.19071056 0.20711449 0.018930407 -0.48942116 -0.087759025 -0.40478978 -0.031943314 0.056049306 0.35352823 0.38221568 0.099453926 0.119488426 0.33378127 -0.18739004 -0.13263136 -0.050054517 -0.02791981 0.007832092 0.16524747 -0.18646505 -0.0149690695 0.27344456 -0.13149592 0.254081 0.06431469 -0.13120013 -0.17693599 -0.35196024 0.29128903 -0.5204014 -0.049360123 0.006201355 0.5795848 0.13059857 0.21623877 -0.21509251 0.06923327 -0.25328505 -0.16898201 -0.25656742 -0.24418922 -0.13844721 0.3136259 -0.14981149 0.36335868 -0.15350497 0.43516532 0.3962746 0.0069352784
28 -0.00916852 0.24255033 0.0983675 -0.036926888 -0.015237496 -0.17031081 -0.21051571 0.13042068 -0.16019289 -0.009652917 -0.24758628 -0.07532684 0.15810196 -0.0863236 0.38957208 0.10909641 -0.097507596 0.006140975 -0.10771775 -0.2403408 0.10556021 -0.05302009 -0.08764945 0.18719536 0.16694473 -0.25677934 -0.028064137 -0.101980805 -0.10787893 0.023931667 0.010810518 -0.091724105 0.37703905 0.024800075 -0.05951121 -0.26226363 0.32414973 0.09012306 -0.21435678 0.044508334 -0.17902996 0.0050325934 0.04357891 0.24852574 -0.2485115 0.025955066 0.07656957 -0.027457615 -0.17564215 0.065097526 -0.33344072 -0.38408875 -0.042383045 0.11425679 0.06899317 -0.20128936 0.20795333 0.08855904 -0.01830575 -0.4647469 0.1397787 0.07028994 -0.13075617 0.05462497
31 -0.030953681 0.23582384 0.03518027 0.0006336567 -0.110271044 -0.11233041 0.03505388 0.079307266 -0.22569537 -0.11219802 -0.29549485 -0.11390941 0.13903467 -0.026249992 0.1883064 0.0438355 0.016860155 -0.0036059292 -0.14647259 -0.17373379 -0.06342482 0.035639603 -0.034326226 0.1556442 0.12305301 -0.11504419 -0.02796966 0.025795806 -0.12545115 0.031984773 0.037118323 -0.107377894 0.2182814 0.047867656 0.048454687 -0.07355844 0.28191146 0.054424644 -0.21845835 0.14082028 -0.19088268 0.05835943 -0.09849104 0.19005342 -0.30362397 -0.050766308 0.029486485 0.11828644 -0.09974386 0.09578744 -0.2956327 -0.24578609 -0.022914223 -0.003140042 -0.0705059 -0.26580226 0.120638035 0.14996444 -0.103956476 -0.2373099 0.11098845 0.013669705 0.08133544 0.190659
8 -0.071419895 0.31432843 -0.100368924 0.04146657 -0.09925493 -0.13738854 0.1778978 0.04317671 -0.26878768 -0.24797377 -0.29498413 -0.10199094 0.08057387 0.023192694 0.075291246 0.07869515 0.16388297 -0.13541177 -0.1799773 -0.023475096 -0.19090769 0.0035454119 0.008917785 0.09370712 0.10181491 0.13347414 -0.05628981 0.109488524 -0.06393593 0.09078074 0.045321297 -0.097506285 0.12243414 -0.077895425 -0.025403522 -0.06804242 0.25009486 -0.06621245 -0.030990042 0.31195202 -0.22214748 0.17380919 -0.17848223 0.3291677 -0.38079274 -0.06982726 0.03646793 0.35305184 -0.014879667 0.16194601 -0.22073877 -0.047573388 0.09642628 -0.028089253 -0.19663084 -0.30073592 0.06881059 0.16615956 -0.03334282 -0.07105492 -0.046138864 -0.0026231143 0.31865513 0.32287467
30 -0.010528185 0.23647274 0.15343091 -0.06796762 -0.05929882 -0.13041638 -0.1980787 0.13906209 -0.1922067 0.0201567 -0.3167809 -0.10043675 0.20564356 -0.08131373 0.38907868 0.054320194 -0.11792374 0.042993996 -0.12398265 -0.32229325 0.12171682 -0.0045195865 -0.08497311 0.20398664 0.18172751 -0.338745 -0.011010776 -0.08594686 -0.14708138 0.0036098023 0.028496742 -0.070531726 0.3837861 0.10455141 0.0277452 -0.21545567 0.36616775 0.13253415 -0.32317987 -0.005115193 -0.15920131 -0.041697014 0.017223744 0.17976993 -0.25109205 -0.007092479 0.06718872 -0.111722484 -0.21525533 0.04796891 -0.37698793 -0.4714415 -0.10535609 0.088199794 0.09800498 -0.19467515 0.20580305 0.108124144 -0.100636445 -0.4907833 0.19955495 0.04211266 -0.17858805 0.07728519
25 0.025552416 0.29302636 0.08563512 -0.0031622516 0.051298726 -0.24584706 -0.30832234 0.15815133 -0.15585452 0.010756092 -0.15699704 -0.030440444 0.014599461 -0.13603869 0.40660638 0.18101361 -0.15856615 0.030529298 -0.15269257 -0.24585101 0.12748267 -0.10029573 -0.08986751 0.2631071 0.21183658 -0.30888107 0.009747841 -0.086018614 -0.081645764 -0.027580706 -0.055504683 -0.10778939 0.3770657 0.0045740134 -0.21362734 -0.34287378 0.34018168 0.05386945 -0.03872292 -0.0339379 -0.17673956 -0.075917535 0.07619782 0.31208786 -0.2565573 0.08290492 0.10039767 0.012573118 -0.16006406 0.054901928 -0.30922863 -0.33356807 -0.035596594 0.14698651 0.071374536 -0.16928387 0.19191967 0.0677637 0.06921991 -0.44766158 0.055056404 0.19739427 -0.1611557 -0.06717201
11 -0.08606704 0.3428949 -0.21334785 0.102068014 -0.079877414 -0.10761788 0.23192574 0.0039800215 -0.48782456 -0.12721425 -0.21965487 0.014413754 -0.3719111 0.03789599 -0.12939538 0.20088893 0.18681447 -0.01069625 -0.45133272 -0.073243275 -0.36143947 -0.029602522 0.043430842 0.30977342 0.3513331 0.07823097 0.09408047 0.2846799 -0.16419709 -0.107775375 -0.032137137 -0.035763133 0.038076095 0.12812932 -0.19584207 -0.029110657 0.27338147 -0.14249045 0.2694506 0.06915766 -0.12265276 -0.13459219 -0.30826113 0.31820163 -0.47754017 -0.039900158 0.022254398 0.5338989 0.11219966 0.21133707 -0.21076737 0.06862254 -0.20373848 -0.13595 -0.23546593 -0.24454099 -0.102695204 0.2764432 -0.10222303 0.29666883 -0.1597881 0.39378932 0.35834178 0.007296459
5 -0.09956629 0.36934865 -0.22802797 0.11169374 -0.0634718 -0.10290782 0.22373499 -0.001056175 -0.52452296 -0.10407297 -0.20927438 0.021490268 -0.4279487 0.040573485 -0.15987602 0.21912883 0.17878868 -0.005859295 -0.49237627 -0.061931722 -0.37985092 -0.03151225 0.06490496 0.32866663 0.38885555 0.07490274 0.12904872 0.31470898 -0.17047758 -0.121559374 -0.04002366 0.003795437 0.021685384 0.13987394 -0.23396978 -0.019836716 0.29093787 -0.16478415 0.3387883 0.02839485 -0.07851382 -0.18663615 -0.3305255 0.33805197 -0.4927084 -0.02624173 0.027429022 0.5327064 0.119815014 0.23737076 -0.19434468 0.07257515 -0.24512914 -0.1308402 -0.22845788 -0.2432253 -0.11182864 0.289144 -0.08465946 0.34986982 -0.17792545 0.43845582 0.35136136 -0.032522265
29 -0.0053745527 0.256718 0.06716271 -0.0066160373 -0.04180495 -0.16100037 -0.10041435 0.11427718 -0.2346762 -0.058059715 -0.21620786 -0.06541431 0.08269124 -0.07245708 0.24894671 0.099290624 -0.044220306 -0.0017631691 -0.1410179 -0.21767285 0.01975914 -0.027562194 -0.052319564 0.2059696 0.17501464 -0.19698961 -0.016939465 -0.0008828365 -0.11021471 -0.001613756 -0.020030018 -0.10147143 0.27261308 0.03375048 -0.063761026 -0.17712452 0.30839065 0.063416444 -0.13218 0.024215076 -0.14312351 -0.032064784 -0.025414584 0.22441152 -0.2753056 0.012349166 0.061856356 0.039752003 -0.11770587 0.07309129 -0.29782096 -0.26470694 -0.06356499 0.06122563 0.020215657 -0.21237315 0.15302566 0.11144056 -0.031433582 -0.25627756 0.059646692 0.08531711 -0.026048709 0.064904496
20 -0.042304914 0.28565595 -0.012232084 0.022564847 -0.10010477 -0.1353403 0.085853115 0.05630312 -0.28920746 -0.17366503 -0.2702301 -0.08678954 0.06665989 -0.01628657 0.10383451 0.04029103 0.07731552 -0.06006985 -0.16862044 -0.14944045 -0.14871435 0.013648911 0.0010807622 0.15620482 0.12871927 0.0062140636 -0.03046483 0.09706493 -0.09204007 0.04435726 0.0110921515 -0.07465384 0.1409266 -0.0006828696 -0.018330658 -0.06290622 0.28247228 0.0016098807 -0.07339781 0.16638488 -0.19213966 0.06308121 -0.1230931 0.26006773 -0.33551657 -0.056196235 0.027098712 0.22659908 -0.031906385 0.09862495 -0.2547216 -0.13686848 0.0095472075 -0.040572915 -0.09303479 -0.25510406 0.076754354 0.15236415 -0.06344118 -0.09852332 0.0059719696 0.027025295 0.19207078 0.22707865
26 0.01973367 0.272328 0.09902402 -0.009691952 0.049203865 -0.2106983 -0.33693314 0.14707957 -0.17511836 0.06837083 -0.1655676 -0.01080584 0.0075814715 -0.14185871 0.4176441 0.15900996 -0.18669116 0.06664715 -0.15198508 -0.2992305 0.13380443 -0.09456725 -0.09611637 0.2927366 0.2606234 -0.3769652 0.039372467 -0.08348454 -0.11104946 -0.066971414 -0.05709607 -0.073653676 0.38988605 0.07327389 -0.18088758 -0.32268804 0.36840203 0.07882882 -0.07977734 -0.096650355 -0.14377545 -0.15514517 0.0872905 0.2590832 -0.23959726 0.08272778 0.07395905 -0.050037708 -0.17262283 0.05861932 -0.3316772 -0.3910386 -0.123855084 0.14190614 0.1327449 -0.14178723 0.19083048 0.07465194 0.020894209 -0.45810455 0.09150361 0.23620336 -0.23293005 -0.1263688
17 -0.108122155 0.36920747 -0.2545794 0.09991358 -0.084711164 -0.05740072 0.2828917 -0.005222551 -0.6188081 -0.046018586 -0.24019249 0.047784526 -0.5786986 0.06843799 -0.2247823 0.2773089 0.2117247 0.080282845 -0.6312783 -0.11701026 -0.42915934 -0.031737886 0.06055302 0.42776364 0.5012998 0.012369323 0.18657206 0.36467084 -0.24200366 -0.22428918 -0.049298834 0.012772353 0.030955812 0.29108578 -0.23020603 -0.0009276795 0.2982728 -0.16001175 0.36464304 -0.07551271 -0.0418064 -0.309879 -0.406736 0.29784828 -0.5379305 -0.032617357 0.02023576 0.568335 0.1507863 0.26302096 -0.23882361 0.0659086 -0.40366873 -0.19247243 -0.2662085 -0.23660251 -0.16431923 0.36354774 -0.17637451 0.4626755 -0.16620204 0.6067704 0.35374534 -0.15731138
10 -0.029692816 0.26479498 0.028233388 0.006185108 -0.049016975 -0.1423144 -0.022373935 0.09531739 -0.22832617 -0.095849715 -0.2503908 -0.09086588 0.09621418 -0.04807904 0.22349422 0.107278965 0.02351869 -0.04166345 -0.14549702 -0.16089015 -0.024648407 -0.022117637 -0.032754127 0.16296977 0.14896205 -0.105309 -0.044847064 -0.016458385 -0.09869095 0.038730666 0.024766268 -0.09598232 0.25447193 0.0040810322 -0.05497274 -0.15694329 0.2779266 0.032237414 -0.10944511 0.11831919 -0.16242525 0.054789566 -0.060163315 0.26321015 -0.2909735 -0.020368915 0.06416467 0.12585603 -0.10425252 0.10183665 -0.2719852 -0.22004993 -0.0072186613 0.044037085 -0.0366649 -0.22118944 0.12878418 0.13029057 -0.019192398 -0.23474023 0.034831002 0.047129232 0.04812445 0.14821026
18 -0.05547395 0.31220397 -0.106639884 0.07337159 -0.14245628 -0.1405214 0.23047683 0.032487795 -0.29208255 -0.2926388 -0.29267055 -0.11039881 0.077880256 0.024694243 0.014339473 0.029523173 0.18759033 -0.12604974 -0.1736738 -0.006971187 -0.2775786 0.018346317 0.036398955 0.11029645 0.07225866 0.19860664 -0.049323596 0.16341121 -0.07190437 0.101400614 0.034598544 -0.118797675 0.054773107 -0.08118025 -0.008606316 0.0015741925 0.2505454 -0.07598349 -0.033226293 0.35519546 -0.2649028 0.17958805 -0.19888408 0.3190115 -0.41384575 -0.093643 0.012050532 0.43741083 0.032634597 0.16095135 -0.21812475 0.0045964634 0.10024686 -0.077182114 -0.23984529 -0.31646535 0.027732717 0.179431 -0.06395165 0.005295785 -0.05301519 -0.01527757 0.40474373 0.37431046
15 -0.012861068 0.21164635 0.16008793 -0.073222846 -0.10720796 -0.12635385 -0.109330475 0.14300518 -0.22426787 -0.034995273 -0.31400383 -0.13352911 0.25492284 -0.0744696 0.34724164 0.03906023 -0.09719094 0.03486393 -0.080389515 -0.32523757 0.087728284 0.020336466 -0.08389436 0.18288343 0.14311942 -0.30771175 -0.0562189 -0.06933677 -0.15156631 0.021134077 0.026637707 -0.11710625 0.34417617 0.1001379 0.08797055 -0.16122703 0.3423479 0.17548826 -0.38337797 0.022451218 -0.17149012 0.0046480773 -0.006069272 0.1421824 -0.25467986 -0.036827713 0.05004069 -0.10464314 -0.19714169 0.02989849 -0.38040447 -0.44069222 -0.07480639 0.052154653 0.086956136 -0.23265131 0.2221553 0.11092223 -0.12382843 -0.4415073 0.20524094 -0.02465408 -0.11116947 0.13306855
21 -0.012818468 0.23162048 0.12618685 -0.04977526 -0.06905949 -0.11507252 -0.12556784 0.122418575 -0.22063707 -0.0120831225 -0.2796501 -0.096615456 0.15651415 -0.071476094 0.30693173 0.060868595 -0.09185214 0.034825403 -0.12081647 -0.3009053 0.07067577 0.012154279 -0.06793963 0.20047154 0.17889978 -0.29882735 -0.015300968 -0.043516852 -0.13300228 -0.0012441068 0.012938566 -0.08812393 0.30838418 0.114111714 0.027535021 -0.15060987 0.3196206 0.12571676 -0.2656059 -0.019829582 -0.12893273 -0.039293256 -0.018570304 0.15490936 -0.24392839 -0.0102892015 0.05674432 -0.06865428 -0.16354284 0.05494176 -0.34047034 -0.38974857 -0.09951501 0.053736065 0.07704976 -0.2088582 0.18089963 0.11743192 -0.10697575 -0.3655099 0.1589858 0.053207744 -0.112801224 0.059240237
13 -0.069626786 0.31219485 -0.0924265 0.04376023 -0.06724574 -0.1448905 0.13205695 0.04552389 -0.28527978 -0.19394408 -0.24590954 -0.07673661 0.015126461 0.0042021163 0.06485692 0.09749173 0.12783097 -0.1163237 -0.20287195 -0.037466977 -0.1953223 0.0023323803 0.0036061243 0.12254308 0.1574952 0.09070977 -0.033255618 0.12202758 -0.072371006 0.054622535 0.02918397 -0.07291993 0.1190394 -0.056187633 -0.07218813 -0.061520446 0.24061655 -0.06460472 0.032259654 0.22992826 -0.16570973 0.084404245 -0.17426203 0.30958045 -0.36265606 -0.039240196 0.03633456 0.33086696 -0.0053369487 0.15276897 -0.20378076 -0.039061643 0.02983278 -0.013589873 -0.15871319 -0.27250308 0.036824368 0.16057354 -0.019926501 -0.021884406 -0.06467083 0.06911983 0.2690806 0.22105512
19 -0.015048184 0.23156601 0.120670155 -0.053140275 -0.0690065 -0.1429727 -0.12238971 0.13472201 -0.21811625 -0.02841653 -0.2903102 -0.103283554 0.18222119 -0.08127892 0.34041393 0.06914223 -0.081643604 0.01838224 -0.10528213 -0.29841864 0.07314863 0.00068930694 -0.08335744 0.19101568 0.1725598 -0.27644148 -0.041210357 -0.05417103 -0.12690651 0.007563814 0.014274347 -0.10809645 0.33353415 0.07941223 0.029821869 -0.18888527 0.33211625 0.13226466 -0.289247 0.028523311 -0.15784106 -0.007957905 -0.011303706 0.17792466 -0.2630507 -0.023524975 0.050753336 -0.049051683 -0.18323097 0.05420147 -0.35381186 -0.38498238 -0.07831649 0.059554726 0.068602666 -0.21998382 0.20141679 0.11086374 -0.089189395 -0.4034824 0.15398051 0.033489153 -0.08973556 0.10031545
22 -0.061046068 0.30505264 -0.09311519 0.06389485 -0.12730016 -0.14217135 0.18638095 0.044890493 -0.3073537 -0.24377415 -0.2785492 -0.10686056 0.032958224 0.007151245 0.034499235 0.058588456 0.16446625 -0.09864885 -0.20203426 -0.048269216 -0.24280703 0.0069788466 0.018966908 0.14204302 0.12130437 0.13723043 -0.03534544 0.14030696 -0.09222708 0.069468975 0.0181732 -0.09766365 0.0904543 -0.046245784 -0.037906405 -0.023659546 0.2569536 -0.052338418 -0.020448344 0.28386548 -0.23116529 0.12531467 -0.19831942 0.3113602 -0.40517133 -0.07094751 0.021558927 0.3927088 0.018558554 0.15272385 -0.23375553 -0.02990894 0.05593262 -0.06291878 -0.19791904 -0.29867786 0.03391191 0.18556964 -0.0643792 0.006033068 -0.04652039 0.034868065 0.34033698 0.2988264
27 0.0019008128 0.23047198 0.13657607 -0.07633509 -0.060093537 -0.13626471 -0.1615518 0.14492878 -0.20695412 -0.013799513 -0.30120596 -0.089052595 0.16898479 -0.076042145 0.37293205 0.04266981 -0.09604265 0.03186266 -0.10919707 -0.33522838 0.091227934 0.0031569314 -0.08174126 0.20910607 0.16933386 -0.31183544 -0.005468908 -0.061999895 -0.11291892 -0.0154876225 -0.0031656695 -0.0729375 0.3556617 0.09285583 0.029840954 -0.21310465 0.34106115 0.123178676 -0.28703636 0.006396781 -0.18212165 -0.021909067 0.0066750613 0.180323 -0.23416057 -0.009109176 0.058644783 -0.082028374 -0.1927846 0.015115225 -0.36557028 -0.42907846 -0.08679189 0.048345633 0.10144639 -0.1774398 0.20404537 0.09733484 -0.09260371 -0.45814785 0.15322036 0.025824308 -0.12458921 0.082927905
16 -0.0038924674 0.2212747 0.15009859 -0.048309367 -0.08769563 -0.12813544 -0.14135255 0.12770928 -0.1941285 -0.020291217 -0.29655752 -0.11501493 0.21822862 -0.093281016 0.36286855 0.051318895 -0.118991405 0.052410543 -0.092367314 -0.31766614 0.10702678 0.008340753 -0.08336375 0.20164347 0.15088634 -0.32711744 -0.03218065 -0.068891376 -0.13538499 0.0045807655 0.010407905 -0.11957131 0.34936005 0.09547183 0.05355484 -0.18081291 0.33745474 0.15748955 -0.32599407 0.014549953 -0.18308876 -0.007594784 0.02379385 0.15246393 -0.24040648 -0.011354543 0.055106767 -0.097886026 -0.18666764 0.028876744 -0.37533426 -0.43418226 -0.06752375 0.06760665 0.0773346 -0.23321979 0.23448431 0.09843952 -0.106835864 -0.46031028 0.20378958 0.0037170905 -0.13047758 0.08282437
23 -0.012666766 0.22986725 0.13088661 -0.052576452 -0.07579451 -0.13635145 -0.12278244 0.13757598 -0.21613471 -0.024630098 -0.2918083 -0.1049539 0.18527307 -0.080230236 0.32520336 0.05591245 -0.0875249 0.02522365 -0.11149625 -0.29362267 0.069818996 0.010592121 -0.07564749 0.19730714 0.15643363 -0.28086317 -0.033599153 -0.051286004 -0.13544865 0.00993374 0.023972899 -0.101923525 0.31936827 0.079952426 0.033006746 -0.18030493 0.3333344 0.13011794 -0.28756264 0.022489222 -0.15503961 -0.018053595 -0.001807286 0.17022993 -0.26439402 -0.020457378 0.05245421 -0.04910505 -0.17461585 0.04936353 -0.34554958 -0.39691854 -0.0801928 0.059387866 0.061277714 -0.22913294 0.19074371 0.11880227 -0.08966791 -0.4098781 0.16600767 0.027770068 -0.09178295 0.1079301
12 -0.057308383 0.2886676 -0.11395471 0.07440224 -0.10305739 -0.117270455 0.17382982 0.027663123 -0.35874778 -0.17118958 -0.2325794 -0.05766695 -0.11520398 0.007362073 -0.017447567 0.10375911 0.14873573 -0.061250232 -0.2683463 -0.07278583 -0.26039436 -0.009880695 0.0255794 0.18956769 0.20287731 0.09874256 0.020953957 0.17929995 -0.11227179 -0.0012238492 -0.0066265245 -0.058273483 0.0650714 0.028099135 -0.08075785 -0.024537196 0.24643914 -0.06639739 0.07693672 0.17422913 -0.1681569 0.005969481 -0.2107498 0.27083388 -0.4068879 -0.05963027 0.009471125 0.39315706 0.044300456 0.15424952 -0.20987697 -0.0026157382 -0.053828362 -0.080053166 -0.18805237 -0.24543078 -0.022507634 0.19838223 -0.07637926 0.098847106 -0.074354306 0.15726204 0.30568862 0.16676007
