34 64
34 -0.113794126 -0.07212803 -0.35798448 0.05085998 -0.07101165 -0.20766236 -0.25552213 0.06897897 -0.101405546 0.2943288 -0.120009005 -0.015292862 -0.068050854 0.2344223 0.343781 -0.13018052 -0.038679194 -0.22174086 0.043210994 0.06228131 -0.09654994 0.08633402 -0.25538948 0.13635364 0.005061477 -0.17776117 0.1113922 0.23482276 0.21833344 -0.2719347 0.25243127 -0.20519964 -0.08721117 0.09317861 -0.13315082 0.18134242 0.07143484 -0.059794188 0.045647804 -0.08239984 0.049922053 -0.012209471 0.26385212 0.2601031 0.1345289 0.06490313 -0.19266745 -0.23908956 0.0033556318 -0.09378242 0.07779648 0.063274644 -0.2037634 0.15427831 0.2216273 -0.23517719 -0.08440051 0.10906957 -0.14269562 -0.0099251075 -0.37239063 0.034367435 -0.17092085 -0.009285858
1 -0.07863977 0.102213785 -0.13138741 0.14043605 0.01763381 -0.08195696 -0.038049053 0.24612771 0.03501649 0.21958989 -0.06431461 0.16376057 -0.33919182 0.17409 0.23460886 -0.41369882 0.028308338 -0.17805403 0.06671109 -0.20306736 0.125878 0.14142041 -0.16618611 0.2542534 0.009707377 -0.16238952 0.2055647 -0.011702357 0.0960578 -0.07364249 0.07490059 -0.066712305 -0.015610748 -0.16065852 -0.15296087 -0.061480667 0.15311316 -0.17927028 0.16884953 0.14793433 0.11843941 0.11881773 -0.0226685 0.28442836 0.16289525 -0.03904689 0.01926645 -0.08601328 -0.20633142 -0.1372017 0.04074054 -0.18401453 -0.0856757 -0.10166919 -0.06297174 -0.22909024 0.06836728 -0.012558406 0.08468733 0.29486588 -0.26654634 -0.1403598 -0.19197996 -0.11649527
33 -0.1215708 -0.08760342 -0.3210462 0.03179442 -0.06457753 -0.21542574 -0.24989745 0.050888326 -0.11005314 0.3267886 -0.118922114 -0.029293945 -0.05753769 0.24876672 0.364372 -0.09026073 -0.031119855 -0.220611 0.07532749 0.073901616 -0.08043697 0.12536529 -0.25762755 0.13123803 0.01232111 -0.209625 0.12555602 0.28095883 0.20137972 -0.2908603 0.26075712 -0.21149412 -0.08375162 0.13011633 -0.1144297 0.19843976 0.064183265 -0.073697634 0.029852604 -0.106533565 0.039416194 -0.044639047 0.28638062 0.2697749 0.10613985 0.059136074 -0.19011243 -0.2487648 -0.010459459 -0.14231004 0.06900233 0.07910717 -0.21266429 0.15220776 0.22145197 -0.23130459 -0.119841695 0.09610283 -0.15562396 -0.032960925 -0.35812443 0.012362453 -0.14926119 0.01950963
3 -0.050711043 0.0717174 -0.2920143 0.16418605 -0.05150892 -0.11796035 -0.18423897 0.19903478 -0.0640103 0.1080836 -0.11611973 0.114168115 -0.23662491 0.14637339 0.19604272 -0.28790268 0.017062929 -0.19020289 -0.032514106 -0.09349375 -0.040450152 0.077046975 -0.19035919 0.15047753 0.020091316 -0.14151822 0.057126448 0.040318597 0.26282382 -0.15197046 0.23892461 -0.12633657 -0.06651286 -0.07327254 -0.15841754 0.061567847 0.1168972 -0.12698983 0.16682881 0.02677312 0.034191757 0.08997843 0.106460586 0.22554065 0.2053549 -0.032607883 -0.09209515 -0.20411184 -0.036627706 0.020821027 -0.00012548931 -0.13041423 -0.10511067 0.03375503 0.099022396 -0.25601262 0.038398556 0.09438501 -0.019799478 0.1892097 -0.34885257 0.01821636 -0.118082374 -0.0946994
2 -0.07839821 0.10960465 -0.39937788 0.15496114 -0.007822935 -0.14669275 -0.085875854 0.36331382 0.060812525 0.17728338 -0.019153317 0.20104453 -0.34729522 0.047774687 0.2266428 -0.5134341 -0.036417775 -0.22025259 -0.039463233 -0.24038476 -0.051960398 -0.031000871 -0.25274512 0.32812053 0.047753822 0.028599657 0.115737006 -0.11665659 0.15583669 -0.084387966 0.12621751 -0.027076958 -0.0462297 -0.24544457 -0.24009286 -0.091193005 0.20302917 -0.1580527 0.24531597 0.18284655 0.11260598 0.20497376 -0.043523747 0.26285264 0.31073183 0.0010569373 -0.004327057 0.005810201 -0.1546831 0.02569865 0.14391568 -0.21510424 -0.11356149 -0.060214955 -0.047220245 -0.216172 0.14639862 0.061515104 0.10127729 0.3219074 -0.36293697 0.03646693 -0.33247963 -0.16390763
4 -0.0427252 0.09504652 -0.3563622 0.15818338 -0.039815657 -0.13403018 -0.11162597 0.27110237 0.027785802 0.13970011 -0.047373667 0.18529895 -0.30652127 0.060117297 0.22210574 -0.4261099 0.008390117 -0.19079892 -0.049817577 -0.20096777 -0.053416934 0.014927183 -0.20198156 0.23680212 0.00080696266 -0.03796377 0.08034579 -0.06482047 0.2038698 -0.0771835 0.157655 -0.07547173 -0.032544628 -0.1968998 -0.21326843 -0.031700905 0.17600891 -0.13942172 0.22563906 0.12746918 0.056349475 0.15303652 0.021280862 0.22741637 0.26017898 -0.03379911 -0.05456425 -0.0671128 -0.102866784 0.046287403 0.07977139 -0.1952031 -0.0810506 -0.039020143 0.00312731 -0.20358235 0.09291071 0.087266766 0.05551569 0.28268987 -0.35561675 0.016353283 -0.22967257 -0.13501467
32 -0.051271763 0.032306384 -0.0272966 0.1129978 -0.040635746 -0.054750077 -0.19279034 0.033041473 -0.1577103 0.13950588 -0.1829015 0.028604547 -0.17292807 0.32300177 0.23130625 -0.10011643 0.07473286 -0.16468321 0.119186714 0.026940877 0.12939247 0.28447363 -0.14080395 0.025803955 0.014899187 -0.34454474 0.15635157 0.19422731 0.27866387 -0.22717635 0.23200236 -0.24765715 -0.05949623 0.08272446 -0.01829716 0.1374188 0.04171536 -0.087736584 0.02025652 -0.035826877 0.057761308 -0.01886385 0.20501211 0.24923961 0.07607855 -0.038969252 -0.087122 -0.36373237 -0.05535335 -0.16229193 -0.10388793 -0.02666936 -0.1382068 0.065623745 0.12516361 -0.3429463 -0.05334132 0.014542896 -0.09024187 0.07246788 -0.271759 -0.13816617 0.07194432 -0.017457444
9 -0.08466201 0.010525345 -0.23345117 0.0870083 -0.026241062 -0.18101044 -0.14019196 0.155163 -0.031163018 0.28883627 -0.08150001 0.061489444 -0.18181899 0.17605385 0.2763747 -0.26365542 0.0016747406 -0.18976936 0.0148783745 -0.0525542 -0.02994311 0.09501051 -0.18177047 0.2065891 0.0058040097 -0.17299989 0.12920617 0.114888914 0.12580779 -0.15333834 0.1709813 -0.11904338 -0.070617355 -0.013860167 -0.16184622 0.07817787 0.10556309 -0.14131767 0.117855676 0.015378803 0.054640234 0.059037674 0.11690191 0.24786186 0.12144212 0.0027688602 -0.11952987 -0.14277942 -0.08914831 -0.11574988 0.05582174 -0.06660184 -0.132332 0.022443699 0.12296329 -0.21342151 -0.034270484 0.068457246 -0.03326689 0.12597243 -0.30421314 -0.044051673 -0.1815762 -0.058499824
14 -0.049821705 0.04745182 -0.30947512 0.1270826 -0.038328685 -0.124397315 -0.1322884 0.21510051 -0.026869562 0.1439809 -0.07831885 0.1436491 -0.24744402 0.1265009 0.23561637 -0.34181944 0.010915406 -0.20227753 -0.025569431 -0.11805532 -0.049933307 0.050946128 -0.2243369 0.19495152 0.021305114 -0.08585531 0.09639364 0.00047387584 0.22323352 -0.12847999 0.1942384 -0.11190453 -0.045727096 -0.12752365 -0.18735987 0.015049036 0.13694528 -0.112390615 0.17522264 0.07835661 0.06054413 0.12131503 0.07138785 0.23523007 0.21967757 -0.0092579415 -0.07412471 -0.13754666 -0.059219766 0.0046756086 0.04301913 -0.12824237 -0.11855492 0.008322721 0.050180983 -0.24708669 0.06594298 0.07398781 0.013772949 0.20880388 -0.35226253 0.007502277 -0.1715422 -0.11348047
24 -0.099824466 -0.059566285 -0.24537498 0.03268786 -0.07385715 -0.13708301 -0.33267632 -0.029224526 -0.20635334 0.205744 -0.1742231 -0.04023348 -0.0063285134 0.33936393 0.3614879 -0.015545899 0.032543678 -0.22105777 0.11007723 0.14629962 -0.031661503 0.22705066 -0.22858238 -0.030160727 -0.0064415075 -0.32571843 0.10488119 0.34152523 0.3685517 -0.37011302 0.31526506 -0.29547787 -0.100152716 0.21052474 -0.048994333 0.24604669 0.024072142 -0.048578367 -0.013856197 -0.17590709 0.009037024 -0.09944183 0.38264838 0.28294146 0.1013225 0.046689972 -0.19315529 -0.40522155 0.048783 -0.12987256 -0.034244683 0.10844087 -0.20973258 0.23415095 0.22463754 -0.31459975 -0.1081782 0.077554286 -0.21149528 -0.07202126 -0.3846766 -0.0005022164 0.049334984 0.03438583
6 -0.085362375 0.22192875 0.2724004 0.21133369 0.06306427 -0.17802432 0.10053227 0.31154445 0.15928659 0.50435334 -0.023206268 0.1508004 -0.519679 0.2525057 0.1990997 -0.52958447 0.12280609 -0.107707895 0.016044931 -0.26439148 0.31915146 0.28994074 0.08354195 0.41639626 -0.049684085 -0.39282382 0.32422802 -0.01278859 -0.2559056 0.13084725 -0.062327806 0.019766064 -0.06287335 -0.108734 -0.1902247 -0.018955013 0.18664181 -0.394817 0.25395483 0.18307638 0.08303012 0.18002525 -0.16362442 0.32257265 -0.082364164 -0.10927578 -0.050410837 -0.01768489 -0.4446826 -0.43120125 -0.10961929 -0.36150986 -0.05227175 -0.29983366 -0.019142197 -0.20142588 -0.07194367 -0.044466086 0.20119871 0.36465988 -0.09019134 -0.4432788 -0.1843334 -0.14608325
7 -0.08804973 0.25489634 0.25275764 0.2380745 0.055303607 -0.16504844 0.10183088 0.3405649 0.17597137 0.46842536 -0.022104831 0.14634502 -0.54860437 0.23735222 0.1649113 -0.5629921 0.106745794 -0.1122135 0.0072088744 -0.28372017 0.31495655 0.27986357 0.087370016 0.43235844 -0.03704524 -0.35476154 0.31721443 -0.05703449 -0.24406034 0.13282244 -0.072662964 0.046019454 -0.053376384 -0.15241559 -0.19527687 -0.038379397 0.22768568 -0.40550354 0.25957906 0.20774958 0.10565581 0.20236385 -0.17411064 0.34014702 -0.04372311 -0.10552329 -0.026629135 -0.013402452 -0.45849133 -0.4021258 -0.08951153 -0.37047294 -0.050313924 -0.31583863 -0.04893922 -0.21076107 -0.044236 -0.03498733 0.2206091 0.4115094 -0.09704136 -0.4148181 -0.20747226 -0.17001948
28 -0.05174431 -0.03909647 -0.2693851 0.051828615 -0.088467576 -0.117609695 -0.27221033 -0.024883006 -0.1649153 0.19571024 -0.16045168 0.038728826 -0.077481054 0.29019165 0.3311224 -0.07150427 0.05589665 -0.20994218 0.06896405 0.04315012 -0.023972306 0.20053816 -0.23005895 -0.014292692 -0.024151908 -0.28722456 0.1058334 0.2469285 0.3477563 -0.28016362 0.3162129 -0.28331885 -0.06786621 0.10925804 -0.07620785 0.19565848 0.017517649 -0.05360666 0.016258828 -0.100946724 -0.017849544 -0.08579286 0.3008001 0.23852298 0.108256385 -0.017316977 -0.17775266 -0.3509865 0.040690336 -0.06196228 -0.031646084 0.022183144 -0.15256114 0.16687185 0.19915242 -0.2783914 -0.08229008 0.0686736 -0.17556459 -0.027046645 -0.39203376 -0.045531865 0.008059675 0.018296747
31 -0.08314091 -0.0053243246 -0.30531982 0.06388955 -0.034703087 -0.17426494 -0.17693488 0.14698291 -0.035687577 0.27711445 -0.07717043 0.057421416 -0.1446458 0.16949458 0.30764362 -0.24991277 -0.022730852 -0.21131843 0.011673111 -0.031806547 -0.060332008 0.06481513 -0.21506454 0.17826757 0.0015040963 -0.13996857 0.12052435 0.13836077 0.15645592 -0.17450948 0.19313487 -0.11828088 -0.07405766 -0.0058657452 -0.16614898 0.08806135 0.106249884 -0.12205024 0.12565275 0.0014338966 0.04249291 0.037003 0.15463245 0.25371087 0.14202327 0.029751496 -0.124231 -0.12868719 -0.0642291 -0.07995024 0.08966868 -0.045306448 -0.14763628 0.07572811 0.115707934 -0.19573592 -0.02915302 0.08128133 -0.04970838 0.09384228 -0.3294893 -0.0026305618 -0.19880846 -0.035758983
8 -0.027408095 0.10009207 -0.2952762 0.15439773 -0.036670823 -0.114327855 -0.07375338 0.29220253 0.017518507 0.13564695 -0.04953186 0.21410832 -0.34805724 0.07597888 0.20237134 -0.45909283 0.03855972 -0.19450265 -0.0640464 -0.22039989 -0.01035627 0.03013311 -0.19778518 0.22952004 0.008034969 -0.064523816 0.1137968 -0.09890727 0.20311365 -0.054791607 0.15743822 -0.08340421 -0.039736588 -0.22366866 -0.22612284 -0.04534375 0.15762906 -0.15582857 0.2449784 0.1609712 0.047964476 0.18352579 -0.019723784 0.22726913 0.2335064 -0.04076541 -0.03813021 -0.06507047 -0.11378354 0.03195029 0.042211503 -0.23931618 -0.077499695 -0.06870866 0.0045699636 -0.24413344 0.11305452 0.064998165 0.099490635 0.28553343 -0.34333226 -0.028915333 -0.21525538 -0.1593753
30 -0.10836355 -0.11512173 -0.327178 0.0018526122 -0.06654355 -0.19218546 -0.2866241 -0.04491262 -0.15378372 0.33240736 -0.14818922 -0.014144803 0.002558201 0.31994274 0.42027366 -0.06502 0.0030312182 -0.2232329 0.08359386 0.094277196 -0.071073264 0.16973718 -0.26007292 0.047876652 -0.030256793 -0.28453967 0.13612215 0.3345931 0.2666504 -0.31216463 0.2902465 -0.27418748 -0.07536387 0.17222239 -0.10233517 0.21781515 0.005749293 -0.037492994 -0.017309448 -0.14327276 0.0017572697 -0.11715026 0.32704467 0.27211457 0.07776929 0.048221238 -0.22939852 -0.3120736 0.043110956 -0.113066114 0.01894698 0.10802143 -0.21276307 0.21523562 0.25402954 -0.23357435 -0.120187804 0.091818 -0.21768782 -0.0929242 -0.4184147 -0.03771453 -0.07563114 0.03370846
25 -0.051765367 0.03952154 -0.042485155 0.116408266 -0.057437766 -0.04444385 -0.26932567 -0.029837394 -0.21151523 0.096108116 -0.21860698 0.029549332 -0.124899104 0.36487302 0.25127587 -0.04268681 0.11029802 -0.19991545 0.11721271 0.07559735 0.1151891 0.3338851 -0.13954529 -0.07417789 0.013937986 -0.42098874 0.116865925 0.25300416 0.39285776 -0.3090799 0.31777853 -0.29626188 -0.068811685 0.15739721 -0.0005456294 0.19214197 0.0064401897 -0.09921614 0.009246011 -0.112820424 0.007086086 -0.07558458 0.30427578 0.26406115 0.06650243 -0.05242706 -0.103082985 -0.45811716 -0.007843068 -0.1287467 -0.14928068 0.0031103014 -0.13195702 0.14369515 0.16547227 -0.38608 -0.06647199 0.012306552 -0.15423878 0.015791606 -0.32723814 -0.12663187 0.17124258 0.020899124
11 -0.06463825 0.22794336 0.21861595 0.21923459 0.055535853 -0.12818453 0.08333411 0.3173503 0.13234851 0.3954933 -0.03789035 0.15997985 -0.5206978 0.22580819 0.16536473 -0.5221226 0.1184421 -0.11092203 0.009636226 -0.2590957 0.30138803 0.27216455 0.056758527 0.37665087 -0.0354088 -0.34123352 0.2870379 -0.0581732 -0.16780299 0.1101363 -0.04170201 0.010328497 -0.04931791 -0.14773692 -0.1822151 -0.05122322 0.20180152 -0.35616517 0.25157672 0.19833253 0.09602185 0.19360362 -0.15344256 0.31627455 -0.014251221 -0.10540987 -0.008261045 -0.041038368 -0.40592077 -0.3524806 -0.09887342 -0.35362995 -0.049442135 -0.28170097 -0.06151799 -0.23461977 -0.020078048 -0.04804055 0.20213883 0.39184225 -0.116838954 -0.38393185 -0.16579491 -0.15249144
5 -0.0764699 0.22421747 0.28694597 0.22507091 0.060076665 -0.11567986 0.11299543 0.30712375 0.14516936 0.42347312 -0.027327362 0.18059838 -0.5510109 0.24362266 0.1665019 -0.53401 0.1360992 -0.1105466 0.056135 -0.29361948 0.36319143 0.32002133 0.067426495 0.3775562 -0.031807225 -0.38373125 0.32364085 -0.04192037 -0.20261285 0.11788853 -0.060859267 0.016042676 -0.023554405 -0.15514736 -0.14772956 -0.065408304 0.17783587 -0.36001202 0.2416851 0.21984316 0.10523088 0.17675926 -0.17612275 0.3254027 -0.051106393 -0.13186792 0.024528872 -0.042368367 -0.44098666 -0.3995782 -0.11061999 -0.36913523 -0.035309285 -0.3211659 -0.08228914 -0.22195658 -0.036758494 -0.09042076 0.2152155 0.39472196 -0.09369467 -0.45174468 -0.15761225 -0.14649393
29 -0.06980055 0.004140494 -0.1616686 0.10125125 -0.049680687 -0.117070384 -0.19336633 0.062080532 -0.11124404 0.20045799 -0.15315945 0.020033287 -0.13924068 0.25555658 0.25329256 -0.13687377 0.032 -0.18426485 0.07351552 -0.0012167827 0.02315005 0.18434994 -0.18665992 0.09885291 0.017938633 -0.2621156 0.119055755 0.18319325 0.2001872 -0.22322612 0.23484275 -0.19894832 -0.06458229 0.06103124 -0.08356345 0.14201406 0.06475637 -0.10754959 0.05331902 -0.055300757 0.049208086 -0.0076686745 0.19933909 0.22306556 0.091125995 -0.023341939 -0.101316385 -0.27472627 -0.036027715 -0.1336426 -0.025561279 -0.024318377 -0.13654315 0.06707406 0.14990567 -0.26505077 -0.06681315 0.044974547 -0.10289232 0.06392016 -0.29851818 -0.06884638 -0.038918108 -0.0069302795
20 -0.06661441 0.05620666 -0.21961454 0.11898501 -0.03331435 -0.13644394 -0.11402166 0.23060885 -0.005362171 0.20835651 -0.0730266 0.10189667 -0.25433984 0.14264116 0.22688413 -0.3220946 0.0010077433 -0.17476337 0.009494597 -0.106884755 0.015022253 0.069981374 -0.18354602 0.22388871 0.02309378 -0.111373395 0.13815337 0.02173126 0.1323462 -0.12015467 0.13152948 -0.10107655 -0.06969518 -0.097790726 -0.17404173 0.026116855 0.14926086 -0.13599207 0.1500757 0.082222216 0.09192078 0.12401416 0.05668518 0.23855896 0.16912547 0.0005517281 -0.06986196 -0.113703586 -0.11951482 -0.088278204 0.03066732 -0.12661378 -0.13690397 -0.0240163 0.0657699 -0.23499358 0.017256865 0.06492951 0.032695778 0.19314282 -0.28784165 -0.031940572 -0.19182445 -0.10643585
26 -0.08748056 -0.022935046 -0.021592911 0.07350248 -0.06268011 -0.07995236 -0.28019285 -0.06874887 -0.21059808 0.20970607 -0.20958428 -0.00877379 -0.084257975 0.40191916 0.2923447 0.011236705 0.082188584 -0.17808284 0.16103129 0.1040789 0.13291083 0.35950413 -0.14178704 -0.07309461 -0.015520562 -0.45164388 0.15300071 0.33895755 0.31698126 -0.31247023 0.2966502 -0.3051023 -0.067751125 0.22086462 0.021257091 0.21884038 -0.024085036 -0.07991895 -0.059815634 -0.13263962 0.0149221625 -0.14665763 0.32095936 0.27025416 0.021521864 -0.03748871 -0.1468181 -0.45544276 -0.032917324 -0.1938965 -0.13039261 0.033919577 -0.16810283 0.15119633 0.19977155 -0.34732276 -0.13935007 0.01591679 -0.19508672 -0.06284835 -0.2978887 -0.15604055 0.14106221 0.056411456
17 -0.09606461 0.25003988 0.4300332 0.20550267 0.10375482 -0.18329115 0.17274894 0.2989626 0.19220732 0.6280524 -0.00022754572 0.1569929 -0.5883425 0.31098363 0.23753242 -0.57902884 0.15983047 -0.09852703 0.057201184 -0.30527136 0.43070722 0.39340913 0.14917675 0.45393464 -0.08874799 -0.5179759 0.40585798 0.018536536 -0.3904958 0.17280847 -0.122032866 0.047176402 -0.043487824 -0.087344214 -0.16891864 -0.0069233445 0.19455934 -0.46802032 0.26480246 0.21357298 0.079162315 0.15103796 -0.20440868 0.379755 -0.17236875 -0.14795007 -0.036548004 0.0018751697 -0.5324162 -0.5703762 -0.14378548 -0.40437424 -0.041632403 -0.37154868 -0.069858156 -0.17298687 -0.12326651 -0.102081954 0.22206847 0.40346566 -0.042304814 -0.5948286 -0.17319764 -0.12589674
10 -0.034053404 0.015931493 -0.2263537 0.103282556 -0.04181157 -0.10387926 -0.15595804 0.098037295 -0.09237137 0.17465451 -0.13209815 0.09437712 -0.18040027 0.21095239 0.2632044 -0.22273946 0.0464086 -0.19449379 0.021744078 -0.06109275 -0.005230693 0.12811044 -0.20973736 0.1156433 -0.01238845 -0.2111873 0.10650174 0.10041395 0.23657091 -0.17773272 0.22595462 -0.18009979 -0.043902777 -0.024150528 -0.11317986 0.0862249 0.07261503 -0.106426105 0.10818857 0.009715157 0.02673918 0.028166303 0.14019595 0.22518322 0.13228592 -0.037328955 -0.0954507 -0.22123887 -0.026807906 -0.05931775 0.0029397297 -0.081049815 -0.108970374 0.04215247 0.114026114 -0.24348007 -0.0012078942 0.06274345 -0.049594007 0.121497944 -0.3362276 -0.058980767 -0.08831585 -0.056067802
18 -0.060801893 0.14844073 -0.29484925 0.17867859 -0.025397813 -0.13234347 -0.07428662 0.3868832 0.06973451 0.1585391 -0.03624448 0.18976001 -0.3784856 0.028333109 0.18061641 -0.49582782 -0.002901845 -0.19187741 -0.06976722 -0.23767555 -0.016735611 -0.004354688 -0.16566373 0.31257138 0.052950457 -0.0068918345 0.11345941 -0.1452527 0.1468577 -0.03593447 0.108522214 -0.028435217 -0.05351672 -0.26068676 -0.23934953 -0.0983139 0.2183529 -0.18688625 0.2660621 0.19657052 0.11339208 0.2277559 -0.0641175 0.23880434 0.27400035 -0.025794238 -0.013165972 -0.014005559 -0.18911013 0.0079310415 0.09654807 -0.24868934 -0.08184682 -0.09493457 -0.017822394 -0.24551071 0.13448402 0.08250566 0.14882459 0.34584558 -0.29702756 0.010025913 -0.28797194 -0.16472559
15 -0.11257552 -0.11336634 -0.38434288 0.015430577 -0.07264729 -0.2221025 -0.27867845 0.01673239 -0.13769731 0.31907246 -0.13136326 -0.03853368 -0.019536667 0.25765818 0.3891637 -0.07858257 -0.029814027 -0.23423533 0.059433315 0.09727803 -0.13404872 0.08975195 -0.2821142 0.10761924 -0.010446947 -0.20215148 0.10400334 0.3100246 0.22392133 -0.3146819 0.28934556 -0.23116829 -0.09745409 0.15057272 -0.12396799 0.23079011 0.05886192 -0.04678794 0.024611931 -0.138543 0.021866139 -0.06446293 0.32090136 0.25578687 0.10573479 0.05647364 -0.21716946 -0.26964402 0.052544974 -0.11771312 0.07604511 0.10216877 -0.22199897 0.2009277 0.2560922 -0.21726565 -0.13076761 0.10936783 -0.20412147 -0.05608413 -0.40428036 0.043038446 -0.1356114 0.03404019
21 -0.10174473 -0.08490749 -0.25633502 0.011675345 -0.05068938 -0.18879955 -0.23907168 0.010959057 -0.1268579 0.30889007 -0.12250695 -0.023956139 -0.039476994 0.26596382 0.35965607 -0.07728703 -0.003003824 -0.20244263 0.09309146 0.07234181 -0.042029556 0.1403135 -0.22741911 0.09725023 -0.011056974 -0.24251626 0.13212536 0.2831321 0.17599247 -0.27310634 0.25193864 -0.21941592 -0.08651868 0.14169972 -0.09629459 0.19443357 0.036239866 -0.06675492 0.024480227 -0.1105489 0.024173172 -0.06477292 0.26998 0.24745 0.06453677 0.032957237 -0.1879363 -0.24967656 0.0012332571 -0.16166276 0.028555939 0.06892283 -0.19857533 0.16275963 0.21915321 -0.22080082 -0.12276455 0.072466895 -0.17590062 -0.036669113 -0.33841252 -0.033202503 -0.08313498 0.027808983
13 -0.023253346 0.093891606 -0.16776222 0.17006375 -0.025999399 -0.10642109 -0.057291996 0.24694218 0.010222623 0.15183853 -0.05997531 0.1842533 -0.3506209 0.11103428 0.1818948 -0.39991757 0.051464334 -0.16229646 -0.023176637 -0.19942442 0.0510749 0.09897294 -0.1642849 0.22318722 0.003577478 -0.11039702 0.14384246 -0.06585681 0.14718905 -0.04076587 0.1385005 -0.07850713 -0.03229367 -0.17706183 -0.18802753 -0.038749263 0.12792781 -0.16001838 0.20549431 0.1406407 0.051766425 0.16768773 -0.024238383 0.21408394 0.16237715 -0.06594353 -0.023976091 -0.08637466 -0.14778858 -0.039958116 0.0039453646 -0.20943642 -0.07285531 -0.087068714 -0.0012760995 -0.23879687 0.06439711 0.024929538 0.09025514 0.28381753 -0.28280765 -0.09433332 -0.16764382 -0.13148862
19 -0.08474622 -0.0730305 -0.30036938 0.044939823 -0.07046317 -0.1831147 -0.24852142 0.02305968 -0.13678765 0.27825037 -0.14179017 -0.0030086634 -0.061080243 0.26752847 0.35764945 -0.098275 -0.0024028213 -0.21440853 0.070701934 0.07384261 -0.0751978 0.13571462 -0.24569342 0.09227518 -0.011915276 -0.25019172 0.1100673 0.27352875 0.23652045 -0.28187943 0.27775997 -0.23747127 -0.09337991 0.12749535 -0.11021554 0.20596452 0.049772665 -0.0689822 0.02891454 -0.106846765 0.017984066 -0.047036234 0.2889825 0.24680632 0.098461375 0.030082602 -0.18681002 -0.28021196 0.0277902 -0.11313053 0.031775236 0.056121904 -0.1986223 0.15551162 0.23177446 -0.242358 -0.10941262 0.08743842 -0.16136673 -0.02488121 -0.3810326 -0.015887158 -0.08278707 0.007979572
22 -0.046355482 0.12287591 -0.24005504 0.17853934 -0.01816409 -0.13332868 -0.06718954 0.326217 0.055796262 0.18400967 -0.057616327 0.16778786 -0.36092454 0.08952464 0.18772066 -0.46068057 0.021326277 -0.18119782 -0.045214474 -0.20583725 0.02252865 0.03969554 -0.15744399 0.295308 0.022144454 -0.073363714 0.13731979 -0.09476414 0.12621237 -0.04803413 0.11547716 -0.053248663 -0.058926336 -0.20774674 -0.21541658 -0.05836985 0.19556528 -0.18548134 0.24558629 0.16507892 0.091598086 0.20303099 -0.042883348 0.2508465 0.21603565 -0.031425033 -0.03860223 -0.047385458 -0.17100124 -0.039937478 0.058021694 -0.23537755 -0.08880531 -0.09375661 0.0023023163 -0.24216174 0.0965351 0.06667804 0.11282767 0.31392172 -0.29546204 -0.04915741 -0.24612394 -0.1585484
27 -0.10992554 -0.089605756 -0.283454 0.005323808 -0.067579724 -0.17944463 -0.27864197 -0.0075073005 -0.1404856 0.2943604 -0.12238505 -0.006076731 -0.018047765 0.30241495 0.38329136 -0.090253316 0.013375281 -0.20558104 0.07419693 0.10845521 -0.06770026 0.14474702 -0.2511424 0.050143797 -0.0256899 -0.24870154 0.11738003 0.3027624 0.26424986 -0.30915505 0.25256222 -0.24624676 -0.104016185 0.15750074 -0.11403413 0.20129833 0.047999315 -0.06111065 -0.0020697142 -0.14276202 0.017457368 -0.0695099 0.3191567 0.2596869 0.078057274 0.068224266 -0.22006221 -0.2874761 0.026948031 -0.13652675 -0.0077218236 0.08601159 -0.23002641 0.17870204 0.2415473 -0.2458508 -0.113887265 0.10591692 -0.18502857 -0.07141011 -0.37756258 -0.013356938 -0.055904604 -0.00877992
16 -0.109544024 -0.08924448 -0.3197285 0.018576646 -0.061948996 -0.20662178 -0.2942279 0.019325577 -0.15742981 0.29294017 -0.12612605 -0.03366035 -0.013231112 0.2611566 0.38338888 -0.05908062 -0.02394993 -0.22963572 0.07574513 0.10096784 -0.09735014 0.13346665 -0.25639215 0.07812745 -0.0039574457 -0.23798059 0.09908869 0.3102771 0.24182184 -0.32964933 0.2969799 -0.22752696 -0.10408792 0.17073895 -0.097652495 0.22453676 0.05053205 -0.05748059 0.023489265 -0.14818025 0.020000294 -0.078934185 0.333354 0.25224596 0.111086965 0.042440325 -0.20419537 -0.28191152 0.03924478 -0.13621204 0.04151239 0.09559693 -0.21500604 0.2127227 0.24262802 -0.22970091 -0.12554395 0.09472048 -0.20728517 -0.06895232 -0.3892373 0.024666293 -0.07921693 0.044105303
23 -0.096496575 -0.080002844 -0.300442 0.024908809 -0.06451436 -0.19123161 -0.2501251 0.024605509 -0.13636117 0.29033557 -0.12920721 -0.0018821015 -0.059057638 0.26698002 0.35582015 -0.09652923 -0.0038344301 -0.2155274 0.07154929 0.07570686 -0.06463462 0.1327496 -0.2538749 0.079742014 -0.0034396716 -0.2349737 0.12379714 0.2752959 0.23011893 -0.28260276 0.2728692 -0.23435102 -0.078804635 0.12236625 -0.1073929 0.19677734 0.047285374 -0.06856373 0.030914309 -0.1093251 0.0213014 -0.05379695 0.2898017 0.2515643 0.1041184 0.03195816 -0.18867132 -0.2671026 0.016275425 -0.12556148 0.033932608 0.0655777 -0.19593653 0.16440873 0.21935162 -0.24279411 -0.10264229 0.08521718 -0.17176138 -0.030778456 -0.3723453 -0.0049140793 -0.094074935 0.017258832
12 -0.060252193 0.14934443 -0.054129377 0.17902008 0.0055062897 -0.12617344 -0.0070193573 0.29140916 0.07155704 0.25055382 -0.051891945 0.13777556 -0.38756222 0.12974055 0.17348449 -0.4232843 0.04008349 -0.14472727 -0.008174523 -0.20352948 0.12559818 0.12603544 -0.076574326 0.29995632 0.014110517 -0.1589312 0.18732207 -0.06378172 0.0018927731 0.0021557857 0.052810732 -0.032541357 -0.051727895 -0.16502157 -0.18476436 -0.034681838 0.1719268 -0.21962376 0.20562106 0.1597891 0.100445 0.17414661 -0.06203561 0.24308373 0.106425546 -0.05516693 -0.027201077 -0.040758383 -0.24466872 -0.17134486 0.005581655 -0.2424927 -0.0828956 -0.15502596 -0.007612693 -0.22981793 0.024921883 0.016350185 0.12904009 0.29332903 -0.1974124 -0.15767084 -0.20307235 -0.12906355
