34 64
34 0.07124657 -0.22609268 0.03366348 -0.18653955 -0.14278276 0.11934241 -0.086843826 0.012035981 0.049383968 -0.13709348 -0.13796887 -0.31841758 0.17851885 -0.16497204 0.11488145 -0.14877194 0.005911631 -0.13178219 -0.0132331485 0.1914007 0.34072518 -0.07485385 0.020554336 0.21174623 -0.27657178 0.18874453 0.1077384 0.23060276 0.18531735 0.28867635 -0.15002167 -0.26061317 0.0104566505 0.032680262 0.098378815 -0.16119295 0.090691514 0.08567999 -0.20260037 -0.09843077 -0.09519284 -0.21398157 -0.10380959 0.119958244 -0.038629398 -0.13870335 -0.1579747 -0.10985959 -0.059863888 0.03549847 0.158012 -0.25056198 0.22894314 0.33496445 0.078216985 -0.16275437 0.2271597 0.0773739 0.24394664 -0.08417832 -0.19202268 -0.20960908 -0.03667242 0.27612638
1 0.13728823 -0.3876158 -0.014479477 -0.02053748 -0.14840336 0.1504896 0.28088963 -0.020378446 0.024507526 0.05129822 -0.09674972 -0.059365008 0.06514094 0.0481054 -0.20378733 0.20806438 0.17347 0.097684905 -0.08158547 -0.06669785 0.2477782 -0.0060778353 -0.2839312 -0.07411061 -0.12768307 0.06949735 0.04734444 0.15535438 0.01522788 0.3813761 -0.019445527 -0.31470796 0.021331428 -0.20264027 0.18705878 -0.09476283 0.08272933 0.06476937 -0.08828504 -0.009973919 0.017385907 -0.3105431 -0.09618998 -0.07547395 0.04319545 -0.30220565 0.20730887 -0.12899294 -0.064372525 0.09484674 0.0065560658 -0.08650062 0.21181646 0.12843287 -0.06535965 -0.14894548 0.33130184 0.21737035 0.0025244239 -0.0883116 -0.14541678 0.06974293 -0.11446694 0.13046317
33 0.08159975 -0.2385468 0.01519148 -0.18609339 -0.12670739 0.12322948 -0.109802574 -0.020359552 0.014070792 -0.14295661 -0.16309363 -0.32645336 0.19705778 -0.18943562 0.15551087 -0.1747038 -0.020394918 -0.11882555 0.0063279187 0.20820658 0.31532222 -0.065255836 0.021252256 0.24305445 -0.31593397 0.16837935 0.108266935 0.21714498 0.18793312 0.27079263 -0.14241305 -0.22384873 0.0008689818 0.04292011 0.09621278 -0.15120243 0.08025874 0.072307706 -0.20451507 -0.10121281 -0.12820074 -0.20990641 -0.10394088 0.15793473 -0.015144359 -0.13245389 -0.18912707 -0.14181487 -0.054674618 0.051389355 0.1435285 -0.24341832 0.205359 0.3317625 0.062677614 -0.17422764 0.2608995 0.07907871 0.24217713 -0.08989026 -0.20000923 -0.22268121 -0.04441229 0.33117872
3 0.11799803 -0.21820319 0.06570418 -0.064125136 -0.14344269 0.16029127 0.12770857 0.11111282 0.116096295 -0.10006006 -0.03662685 -0.16863479 0.06443648 -0.007824315 -0.1271366 0.034383114 0.15449876 -0.12374774 -0.062029213 0.017056791 0.34726807 -0.06583279 -0.12347821 0.028228411 -0.13672327 0.1390655 0.081288956 0.21611801 0.1722178 0.39742923 -0.099596694 -0.30784932 0.02511364 -0.020030554 0.16230844 -0.13595 0.061877154 0.15254672 -0.14599155 -0.04842089 0.09420787 -0.25748664 -0.055422954 0.04140212 -0.063541405 -0.20374642 0.011836636 -0.003476855 -0.024195414 0.026017893 0.09450891 -0.18986937 0.21190324 0.19249594 -0.004094447 -0.122634605 0.24902524 0.15593117 0.16093937 -0.05152776 -0.15602484 -0.03623259 -0.023838548 0.13002439
2 0.12815416 -0.34978074 0.07571668 -0.14836726 -0.17459747 0.1414221 0.33451426 0.103562824 0.19774443 0.019767864 -0.05864075 -0.12980214 -0.0040970417 0.082075536 -0.32341394 0.2594226 0.2283101 0.022437695 -0.14797918 -0.030869214 0.38065463 -0.04098428 -0.2506842 -0.17554632 -0.009836955 0.27184382 0.043155372 0.24094447 0.037100155 0.50955755 -0.06633569 -0.4111795 0.058791693 -0.1568541 0.11687956 -0.14307033 0.18639125 0.17074452 -0.10463267 0.0014147798 0.15752512 -0.34206837 -0.07036235 -0.17396621 -0.14232735 -0.2896473 0.2427205 -0.025958413 -0.13221332 0.046216045 0.085243896 -0.079001606 0.33950156 0.16552125 -0.011708194 -0.16925138 0.20706455 0.19735456 0.03490069 -0.1536027 -0.10357572 -0.02542853 -0.12317024 -0.07823206
4 0.12782298 -0.28559774 0.06948276 -0.13017158 -0.1607522 0.14256756 0.2663754 0.1101515 0.16453065 -0.0059374524 -0.027177459 -0.117060795 0.0066391663 0.05768836 -0.25493842 0.18040964 0.2176306 -0.043323606 -0.11803525 -0.02993682 0.35889405 -0.06066498 -0.18995109 -0.08330825 -0.06267233 0.192541 0.07147711 0.21515186 0.10285455 0.45217934 -0.055435702 -0.35578266 0.06884725 -0.09571268 0.13675316 -0.13529861 0.11280728 0.14575729 -0.089607775 -0.027267803 0.16768725 -0.31183237 -0.047062315 -0.08161169 -0.13570003 -0.24032119 0.15255252 0.0021954079 -0.09746243 0.028738959 0.0780151 -0.12677266 0.29726103 0.15167135 -0.019278927 -0.15479197 0.22031303 0.1629422 0.086201 -0.10337243 -0.11565211 -0.0032598502 -0.0695428 -0.0011688776
32 0.081998214 -0.23200954 -0.039476234 0.113602504 -0.15805157 0.18790169 -0.06062589 -0.0059909327 -0.05699691 -0.15156338 -0.13008554 -0.15058962 0.15294123 -0.120051846 0.08813869 -0.08295301 0.02054608 -0.10120538 0.010015555 0.039680723 0.2187645 -0.056105245 -0.12887946 0.19267288 -0.30731452 -0.059573602 0.1161318 0.12645638 0.18452187 0.26122737 -0.08046136 -0.21730106 -0.051565293 -0.068718255 0.25146073 -0.078937635 -0.04463998 0.082513414 -0.20381305 -0.09347629 -0.11961253 -0.19152276 -0.13890718 0.17572565 0.17820182 -0.18312608 -0.14432257 -0.10691449 0.07472014 0.08950643 0.09117613 -0.2410647 0.05192725 0.22800498 -0.030194243 -0.04581722 0.3704696 0.13710926 0.16839899 0.02228237 -0.20165356 -0.0013043367 0.007020727 0.3821689
9 0.11903227 -0.28056473 0.029176056 -0.15496631 -0.108473174 0.121822625 0.098897636 0.018525828 0.043073468 -0.028402165 -0.08985454 -0.2127815 0.15032482 -0.06863575 -0.03803939 0.006188237 0.117711976 -0.0045697712 -0.025634633 0.060261086 0.28764436 -0.020737104 -0.10061899 0.07768721 -0.18383305 0.12747562 0.06063016 0.19190551 0.11904354 0.3377812 -0.09787314 -0.24649338 0.034122374 -0.03102259 0.10443837 -0.11662687 0.08930557 0.05522342 -0.10965018 -0.050652824 -0.0058635673 -0.22113648 -0.074558206 0.036089398 -0.021864913 -0.20159325 0.00956395 -0.10925266 -0.08142744 0.05018436 0.08241735 -0.16639742 0.21772283 0.22104736 -0.0032361196 -0.18537094 0.26012436 0.15716116 0.14087091 -0.0929293 -0.17077559 -0.06926779 -0.09398752 0.22070654
14 0.106913365 -0.2629678 0.05660097 -0.099647455 -0.15166482 0.14956354 0.1686305 0.06943836 0.12021091 -0.05803415 -0.058941483 -0.14902104 0.030875366 -0.0050101415 -0.14810032 0.102406375 0.1459217 -0.06649202 -0.079024434 0.025017714 0.34185925 -0.05527545 -0.14156735 -0.021967286 -0.11141584 0.16327864 0.07279234 0.2117671 0.11996643 0.40462303 -0.0830493 -0.3411314 0.05282208 -0.07303273 0.15417852 -0.13262972 0.08785152 0.14912395 -0.13531443 -0.037024636 0.10108031 -0.27038103 -0.07989882 -0.03434899 -0.07001689 -0.21530652 0.08349845 -0.013153058 -0.06989231 0.037531063 0.103358954 -0.16040498 0.2607545 0.19210504 0.0035807379 -0.1377092 0.23716894 0.13897079 0.11750714 -0.094316185 -0.15148163 -0.03730066 -0.05062061 0.08864926
24 0.048389662 -0.17032626 -0.0027954718 -0.042921394 -0.175587 0.16317247 -0.24302804 0.01612453 -0.011701063 -0.27617028 -0.18709888 -0.31735665 0.19188479 -0.21135882 0.2414024 -0.23857407 -0.08165106 -0.2425461 0.07713558 0.18419704 0.32568583 -0.12631029 0.045173705 0.3449292 -0.3971294 0.05255897 0.13759167 0.2112608 0.27522373 0.23339054 -0.12279323 -0.2490955 -0.034120753 0.06564813 0.20191932 -0.1522491 -0.011050785 0.095423765 -0.25596532 -0.13202098 -0.15220778 -0.18484761 -0.14516988 0.2644535 0.08543737 -0.1276629 -0.31469113 -0.08250697 0.06898426 0.05463331 0.18537652 -0.34771284 0.10577297 0.36010888 0.08071402 -0.07077686 0.30861646 0.071336366 0.30597174 -0.01988388 -0.23335226 -0.1738285 0.066244915 0.42144364
6 0.29740953 -0.5808978 -0.040963016 -0.04388661 -0.019925684 0.15412955 0.5170646 -0.07118818 -0.1738829 0.32370055 -0.036143385 -0.025631657 0.30003625 0.062005505 -0.23854405 0.25605437 0.38695684 0.47436938 -0.034399793 -0.27221125 0.11351005 0.19285062 -0.41160882 -0.09418435 -0.13796377 -0.16631588 -0.04462141 0.113047935 -0.08224611 0.40883303 -0.015030301 -0.14394249 0.038360782 -0.23652732 0.16158521 -0.014540406 0.046066668 -0.1966231 0.17697987 0.070739836 -0.032758508 -0.23841906 -0.064586684 -0.064441025 0.22910057 -0.39172816 0.29891434 -0.31212133 -0.13134305 0.15989885 -0.17298107 -0.04336031 0.09476782 0.08259795 -0.24514024 -0.32760352 0.49445757 0.40315774 -0.071692824 -0.020349525 -0.17918482 0.36431623 -0.3302929 0.3767435
7 0.3165414 -0.5924839 -0.025900885 -0.027747123 -0.023406157 0.17852935 0.550301 -0.027666047 -0.13940096 0.33150026 -0.021425117 -0.0025455807 0.27417475 0.08590916 -0.29623082 0.2918881 0.40401477 0.45884645 -0.06849964 -0.2868896 0.13110237 0.18990202 -0.44161588 -0.1483467 -0.09951783 -0.13623764 -0.044215593 0.12793894 -0.08218154 0.43957016 -0.0127802715 -0.15697238 0.01841554 -0.26096544 0.1512953 -0.022550836 0.06485964 -0.17293003 0.17486152 0.06627707 -0.02093978 -0.26114208 -0.07029034 -0.097969405 0.21159674 -0.39236757 0.3158515 -0.30104133 -0.1411612 0.14443669 -0.17950879 -0.016299445 0.08793778 0.08153603 -0.25838882 -0.33797327 0.48674792 0.41018727 -0.07060718 -0.013721584 -0.1744567 0.3612638 -0.33117354 0.32459837
28 0.046904624 -0.17584589 -0.0028826646 -0.05090544 -0.16873813 0.12287935 -0.15850605 0.007031231 -0.009515358 -0.22645204 -0.12169098 -0.25092572 0.13776118 -0.15671425 0.14899534 -0.1428209 -0.0053081256 -0.20718355 0.025966814 0.13984999 0.32428846 -0.14579436 0.022516951 0.2849402 -0.3614308 0.042217296 0.13837643 0.18536128 0.27451903 0.25382897 -0.08862109 -0.26960397 0.00064851245 0.05841737 0.20690237 -0.12813075 -0.043448508 0.101399526 -0.22858477 -0.13005945 -0.076279044 -0.21696346 -0.099912174 0.21448088 0.032697488 -0.15564336 -0.20720042 -0.06707918 0.04103921 0.060703464 0.15479453 -0.32004973 0.15228331 0.27993438 0.041924115 -0.054765906 0.31197888 0.08104683 0.2535701 -0.0339239 -0.20714419 -0.13252695 0.052039843 0.35937148
31 0.080860056 -0.2462017 0.03657333 -0.17789118 -0.13552889 0.11328991 0.063123494 0.022786627 0.07180243 -0.071940206 -0.1062367 -0.24268849 0.14199266 -0.08063195 -0.029428279 -0.01529865 0.07951938 -0.038972452 -0.023841998 0.084615014 0.30433378 -0.045680728 -0.066743456 0.10417435 -0.1981811 0.16149342 0.07962078 0.19980045 0.13524288 0.32619727 -0.1011923 -0.2663902 0.05423794 -0.012763012 0.091467015 -0.13826153 0.08628917 0.066842414 -0.12389495 -0.04908948 -0.001775407 -0.22503209 -0.07687054 0.032885708 -0.060216963 -0.19854075 -0.017260049 -0.097981706 -0.07445684 0.05662378 0.11255928 -0.1903126 0.23287256 0.24826738 0.017475205 -0.1748906 0.23630965 0.14268462 0.15491338 -0.121510796 -0.15905759 -0.112297 -0.0711441 0.18462834
8 0.12360732 -0.29299632 0.058302388 -0.09141699 -0.1637078 0.1429363 0.30061033 0.097833365 0.14010988 -0.004995878 -0.023499599 -0.09017293 -0.000991414 0.067153886 -0.26464325 0.21400556 0.23565133 -0.0019165941 -0.11608706 -0.058424257 0.33765823 -0.036962755 -0.22083226 -0.119435266 -0.06049867 0.15253954 0.053235676 0.20817746 0.08482351 0.47276685 -0.05763283 -0.37721086 0.08211344 -0.106905855 0.17144944 -0.12328404 0.095521726 0.14688753 -0.09146266 -0.0077423183 0.18141529 -0.31552598 -0.06251069 -0.10913525 -0.089738354 -0.26624858 0.20454626 0.00021457172 -0.09184927 0.062897086 0.07270367 -0.13511585 0.28774738 0.12006289 -0.039666217 -0.13163383 0.2633087 0.19271079 0.05101292 -0.1020524 -0.12446763 0.04880169 -0.08720638 0.01042737
30 0.028349373 -0.20809925 0.0015780414 -0.16230841 -0.14957686 0.09831993 -0.21297868 -0.042373475 -0.024216542 -0.2044868 -0.16892074 -0.33390516 0.21805456 -0.20608783 0.23032348 -0.20168324 -0.038741924 -0.16974576 0.05867164 0.2132204 0.33447886 -0.12642133 0.084573224 0.35361606 -0.39637148 0.090013534 0.13450965 0.20644142 0.25669456 0.21916538 -0.13383329 -0.26743594 0.023773309 0.06829094 0.13328253 -0.15689573 -0.00870952 0.044396352 -0.22342044 -0.15157303 -0.15578637 -0.19919501 -0.11837935 0.20939401 0.029998982 -0.14482774 -0.22118247 -0.11749003 -0.009270534 0.058925617 0.16580194 -0.33115673 0.204054 0.36247233 0.093737625 -0.12435466 0.2680508 0.06065467 0.2668492 -0.09355698 -0.23737167 -0.21967912 0.0048891464 0.3974441
25 0.06399509 -0.16888414 -0.051306985 0.14996818 -0.17805874 0.2054873 -0.14919232 0.026308937 -0.06584898 -0.26262432 -0.15141137 -0.17419134 0.16909777 -0.14884824 0.15931216 -0.14871398 -0.030040367 -0.21130323 0.07047889 0.063028514 0.2446472 -0.11298817 -0.07874415 0.2799194 -0.3881345 -0.09974823 0.14086747 0.15043254 0.2695277 0.2561656 -0.08141886 -0.22330976 -0.053499937 0.014313612 0.30937994 -0.094462104 -0.094389625 0.11181871 -0.2473708 -0.12476507 -0.10332727 -0.20256521 -0.14205593 0.27120334 0.19899757 -0.17490527 -0.2346078 -0.07770577 0.14308414 0.10322222 0.12591103 -0.327144 0.014601193 0.24061112 -0.00802553 0.0043268343 0.41031536 0.13002057 0.24164194 0.046751678 -0.23338225 -0.018019283 0.07405498 0.4573973
11 0.27045718 -0.5373905 -0.022647249 0.004369301 -0.04744213 0.18053271 0.50885606 -0.034878507 -0.11726868 0.2710665 -0.03356264 0.003199174 0.22344157 0.0713731 -0.27350575 0.26834738 0.36289883 0.39215666 -0.06260783 -0.26522255 0.11782797 0.1621382 -0.41398937 -0.13231057 -0.104023844 -0.13033602 -0.021590771 0.12142257 -0.062042262 0.42145723 -0.0072653936 -0.18200985 0.035179768 -0.25011504 0.18908474 -0.020077722 0.049248893 -0.12667176 0.123898745 0.07164473 0.010700005 -0.2540501 -0.07725329 -0.0887943 0.20348941 -0.3738522 0.29135314 -0.24621841 -0.11069962 0.14806135 -0.14910926 -0.039658856 0.103534944 0.06966761 -0.22600728 -0.28396916 0.4761271 0.37424627 -0.07088655 -0.026383959 -0.16862997 0.33910164 -0.2863017 0.30659136
5 0.27989683 -0.5754655 -0.070225835 0.0423924 -0.03375311 0.15955117 0.5195157 -0.08272206 -0.1643527 0.3014481 -0.04829954 0.03938482 0.2382101 0.08533865 -0.26255426 0.2989212 0.36820984 0.43885013 -0.06278324 -0.28285122 0.09106029 0.17262016 -0.45894793 -0.13064627 -0.12121658 -0.17140882 -0.037766993 0.08382031 -0.09140539 0.40964955 0.017280608 -0.16567911 0.020742271 -0.27389136 0.21497056 -0.0004035703 0.033080198 -0.15618426 0.12206806 0.06393293 -0.028711816 -0.2791902 -0.07667182 -0.07865505 0.25301218 -0.39907047 0.33404136 -0.28185803 -0.11044482 0.16246033 -0.17497283 -0.035647973 0.09109417 0.043992404 -0.25295326 -0.26612717 0.50809443 0.3993567 -0.10906786 -0.016103711 -0.17040852 0.3685135 -0.30437437 0.33911648
29 0.090214185 -0.22936846 -0.019346362 -0.03099059 -0.1284656 0.14896703 -0.024572672 -0.013631189 -0.01639176 -0.10782574 -0.11423368 -0.19848663 0.14950624 -0.10769265 0.071295805 -0.08532556 0.035983488 -0.09756529 0.013365064 0.10029837 0.2656643 -0.050952587 -0.076627865 0.16299221 -0.26605603 0.043803174 0.113230646 0.1552402 0.1696667 0.2852699 -0.11458704 -0.21083549 -0.016878046 -0.027088493 0.17626446 -0.09484115 0.01845779 0.09218503 -0.17411779 -0.08899652 -0.07073421 -0.2097708 -0.087537214 0.14308216 0.06286628 -0.16714126 -0.109583996 -0.123122476 -0.0023851814 0.068857424 0.08360919 -0.20952013 0.13332112 0.22962908 0.011309267 -0.10742643 0.29949096 0.12323344 0.17208168 -0.04052293 -0.18762526 -0.07231562 -0.023299474 0.3149545
20 0.12301152 -0.31000152 0.038994662 -0.096011534 -0.13928503 0.15960826 0.18091016 0.032966737 0.06731428 -0.010766891 -0.0892979 -0.14240353 0.0858498 -0.025355596 -0.118765764 0.08851744 0.13342912 0.033896446 -0.0849774 0.009825943 0.2827157 -0.0021497218 -0.16152155 -0.03790541 -0.11171175 0.14053088 0.066000074 0.19593723 0.059457406 0.3895729 -0.09014309 -0.28805342 0.02352848 -0.11432264 0.13263838 -0.11101381 0.10607369 0.1001063 -0.11275216 -0.016381346 0.016464166 -0.25452214 -0.087098025 -0.033273753 -0.006919737 -0.21459778 0.06796736 -0.08600276 -0.081237644 0.06333439 0.06446936 -0.120175794 0.22101097 0.20782429 -0.01720702 -0.15443382 0.24407423 0.15171053 0.090491794 -0.07873127 -0.14620705 -0.01219809 -0.09588188 0.12215494
26 0.066358775 -0.19043341 -0.051832046 0.09224658 -0.16395235 0.16778941 -0.2123482 -0.039156802 -0.124973685 -0.24220051 -0.1727564 -0.22642253 0.22553775 -0.19612618 0.2397457 -0.20194161 -0.05100299 -0.15526631 0.0812052 0.096274465 0.21977566 -0.10897898 -0.034644566 0.33718547 -0.44404674 -0.10608348 0.12714742 0.13286 0.26551467 0.18692067 -0.0776291 -0.18549323 -0.0587072 0.012865081 0.2718255 -0.080834575 -0.11158341 0.033415835 -0.2246417 -0.13357759 -0.20820786 -0.17556407 -0.156137 0.303434 0.22365557 -0.16502233 -0.28882632 -0.1331824 0.10960784 0.107348755 0.11588732 -0.3285733 0.0073235445 0.29215035 -0.0026659155 -0.012661811 0.41277763 0.118046194 0.23548979 0.028446646 -0.2378161 -0.06607112 0.032260887 0.5214381
17 0.33080468 -0.68216753 -0.10058248 -0.028787622 0.02119033 0.13270803 0.59643245 -0.14942993 -0.28334036 0.4291073 -0.05380146 -0.0064401235 0.38243777 0.0699227 -0.2470828 0.29217136 0.43624806 0.6071964 -0.01175933 -0.33853862 0.039697133 0.2434456 -0.47823346 -0.06465397 -0.18115908 -0.2774648 -0.06986125 0.072169706 -0.11740882 0.3876679 0.020804413 -0.09772986 0.052704185 -0.27893677 0.17396815 0.014090186 0.004186308 -0.30844623 0.24620901 0.08234861 -0.08607015 -0.2514029 -0.07269685 -0.07069902 0.31554276 -0.45152107 0.35110003 -0.40119195 -0.15089037 0.19978757 -0.2553119 -0.042515676 0.05957083 0.06019165 -0.3003934 -0.38824263 0.5961089 0.47302777 -0.11207842 -0.018901251 -0.20750393 0.4675363 -0.39006025 0.497017
10 0.07669294 -0.23666935 -0.0031804668 -0.042901527 -0.14919376 0.123010226 0.04860571 0.025076987 0.037583113 -0.085308835 -0.07575512 -0.16172604 0.087845266 -0.053443167 -0.022350295 -0.0074190386 0.087559015 -0.09859093 -0.022819668 0.059930917 0.30348745 -0.07031226 -0.09319787 0.11486056 -0.22112356 0.06799445 0.106244855 0.16916044 0.1681972 0.3199593 -0.08417458 -0.27707538 0.02604724 -0.034962595 0.18326586 -0.114542566 0.02486667 0.11476881 -0.15681711 -0.07188544 0.02465766 -0.23482764 -0.069235854 0.07393445 0.0033889983 -0.20425941 -0.019489327 -0.064060025 -0.010309119 0.04709071 0.09718429 -0.211699 0.19796057 0.19874471 0.0034531371 -0.11250283 0.29362994 0.1234119 0.15975378 -0.05778319 -0.17197742 -0.031998485 -0.011345362 0.22494788
18 0.1720558 -0.34559914 0.09074722 -0.11952782 -0.15851809 0.1768435 0.3800231 0.119303636 0.1913065 0.053041577 -0.03403141 -0.089269295 0.014678798 0.07653042 -0.33493978 0.2590153 0.25448114 0.06250676 -0.16064441 -0.095260054 0.32465085 -0.011455857 -0.26204017 -0.20708059 -0.0034857627 0.20785117 0.030318342 0.24256302 0.028637122 0.5110041 -0.054940276 -0.3493377 0.06274271 -0.16080992 0.13328262 -0.115874596 0.17175867 0.15782581 -0.07084052 0.026137792 0.17703967 -0.31257382 -0.04911085 -0.15598929 -0.10889199 -0.2851249 0.22868463 -0.024744235 -0.11895981 0.05956213 0.060933206 -0.055895686 0.28611892 0.12594336 -0.057465926 -0.17458437 0.23905769 0.20611832 0.037831478 -0.10288959 -0.09640208 0.040591046 -0.12841792 -0.05593946
15 0.048251607 -0.19643293 0.02189834 -0.20738867 -0.13780934 0.113156594 -0.15883665 -0.020915689 0.032506086 -0.17517146 -0.16275157 -0.3649064 0.2049969 -0.20753816 0.19078958 -0.22196671 -0.037367616 -0.16345844 0.024890628 0.24447373 0.36234102 -0.08761785 0.070856124 0.29645166 -0.315981 0.17780603 0.13276793 0.20698684 0.2293282 0.2605529 -0.17351429 -0.23784135 0.02648624 0.07781767 0.093905315 -0.15950352 0.06841352 0.09253054 -0.22231597 -0.1242802 -0.11969022 -0.19573739 -0.088910334 0.17246658 -0.039497793 -0.1245754 -0.21863066 -0.1168007 -0.06272603 0.035540342 0.17062917 -0.28258786 0.23541172 0.3663391 0.0980261 -0.17600644 0.22844441 0.057082545 0.2752205 -0.11446894 -0.2045375 -0.24667016 -0.02134946 0.33113626
21 0.051524844 -0.21294874 -0.010166664 -0.13661128 -0.119771026 0.10017532 -0.124623396 -0.05114061 -0.020411199 -0.13672976 -0.15370294 -0.31030783 0.21085235 -0.18640497 0.17423499 -0.16954587 -0.023301853 -0.09980843 0.04338536 0.17975311 0.2948972 -0.061584823 0.03478668 0.2818472 -0.32105735 0.093379326 0.116580725 0.16605431 0.19573164 0.22713016 -0.12908344 -0.21388942 0.018613985 0.035385195 0.12159568 -0.12495549 0.020886123 0.041822113 -0.19486572 -0.111266375 -0.13626842 -0.18086228 -0.094636805 0.16820762 0.02461736 -0.13891046 -0.17257376 -0.1274932 -0.042887796 0.06798157 0.13621391 -0.25792837 0.18658447 0.3213011 0.068873346 -0.14820081 0.2560785 0.08521567 0.2232456 -0.089540094 -0.1892692 -0.17127648 -0.026300382 0.3570204
13 0.14397736 -0.30157438 0.02869649 -0.04511647 -0.12911434 0.14000995 0.27949762 0.045535885 0.064556226 0.03282712 -0.025154658 -0.054762725 0.03027717 0.05751051 -0.21746512 0.17837816 0.21911596 0.032431617 -0.10541151 -0.07433142 0.25936702 -0.001711158 -0.24161561 -0.09388907 -0.07726768 0.09710855 0.04246507 0.1621809 0.069405966 0.41501135 -0.051929507 -0.31076387 0.054481883 -0.12544493 0.18068866 -0.09933068 0.064695984 0.10483149 -0.08313416 -0.0035650406 0.11764546 -0.28970194 -0.07171753 -0.070858516 -0.012981565 -0.2557356 0.18557182 -0.044928163 -0.068894446 0.071645044 0.03449313 -0.1197565 0.22689769 0.109798305 -0.063206054 -0.12934063 0.29092428 0.19824152 0.025996288 -0.072437026 -0.13585646 0.07595156 -0.10074943 0.0985063
19 0.060182195 -0.2092371 0.0060970467 -0.14552163 -0.14593278 0.12378644 -0.12839344 -0.016315445 0.01032386 -0.16402489 -0.14454372 -0.30738163 0.19161077 -0.17395303 0.15692687 -0.1705637 -0.0042197113 -0.15004587 0.025728948 0.19056469 0.32707337 -0.082629494 0.031511474 0.26219332 -0.31736228 0.119615465 0.13086386 0.18898824 0.2176503 0.2747781 -0.140895 -0.24399097 0.01979706 0.040925108 0.12891833 -0.14206988 0.03118121 0.07807879 -0.21211264 -0.11616904 -0.094206914 -0.1984628 -0.098667525 0.1605965 0.006713882 -0.13682932 -0.19140849 -0.111061215 -0.02788922 0.05503429 0.15728107 -0.27599993 0.20209548 0.3175298 0.068152 -0.13576193 0.2655096 0.090405375 0.24901226 -0.08422192 -0.21130233 -0.16807088 -0.007939866 0.3470605
22 0.1622742 -0.34867972 0.06137712 -0.098280944 -0.14510308 0.16131212 0.334266 0.08891401 0.1282429 0.048556443 -0.033070087 -0.09854221 0.045596655 0.061797045 -0.27237582 0.21037702 0.24944244 0.07168918 -0.13110639 -0.08515588 0.30458763 -0.0016567227 -0.25499085 -0.14344126 -0.04157024 0.15580441 0.04289318 0.21439758 0.038559508 0.47406626 -0.057475805 -0.33353505 0.052712455 -0.15119174 0.14484836 -0.11145864 0.12904844 0.1188146 -0.06383536 0.014968406 0.123030916 -0.29485643 -0.06555459 -0.11202135 -0.06229189 -0.28209347 0.20031421 -0.051453672 -0.10806571 0.0659345 0.04197198 -0.091875054 0.25842798 0.14381184 -0.065135054 -0.17870666 0.26493263 0.21295986 0.045038816 -0.09562945 -0.13016948 0.057898678 -0.12541476 0.03256168
27 0.054704055 -0.20522991 0.015298888 -0.14644031 -0.14481032 0.1135484 -0.17021419 -0.020825107 -0.014100161 -0.20021686 -0.17632858 -0.3193743 0.19564486 -0.20015767 0.20383039 -0.18695574 -0.04258303 -0.14731798 0.05230626 0.18896459 0.33152524 -0.09205362 0.06709209 0.28167537 -0.34305778 0.1031458 0.111006565 0.21398732 0.21108921 0.2316613 -0.12940232 -0.265133 -0.0009596701 0.037609704 0.13585564 -0.15746534 0.023683533 0.0644025 -0.20155069 -0.11852386 -0.14354682 -0.18595734 -0.13570793 0.18443902 0.039428964 -0.13468796 -0.22288871 -0.09480504 -0.020920224 0.051469047 0.14390379 -0.30737025 0.17459466 0.36591712 0.09037529 -0.12980606 0.24342275 0.06954565 0.25257424 -0.0734436 -0.23631881 -0.1813628 0.009305624 0.37706307
16 0.03758689 -0.18995446 0.018251676 -0.16788481 -0.14927272 0.12701762 -0.17017628 -0.011202765 0.0127393 -0.20183201 -0.17600247 -0.35510945 0.207826 -0.20960107 0.18762666 -0.21439736 -0.04065148 -0.16273111 0.05732705 0.22251563 0.3424197 -0.086279824 0.066476226 0.30180117 -0.3367411 0.13423438 0.13381633 0.20785858 0.22726847 0.25104874 -0.1500858 -0.23126756 0.01642951 0.081657365 0.1175353 -0.14812483 0.042679936 0.08096922 -0.21936113 -0.12794137 -0.1301251 -0.17925392 -0.09418985 0.20297584 -0.008287866 -0.12896389 -0.24472041 -0.10657095 -0.02459563 0.05577776 0.16551329 -0.28690386 0.19524522 0.36177775 0.07968504 -0.14590801 0.24047509 0.07161229 0.2644578 -0.09301386 -0.19728185 -0.22042568 -0.0064283097 0.3533567
23 0.05082265 -0.20376366 0.009514911 -0.14161342 -0.14745791 0.12134038 -0.1283423 -0.017076306 0.0046314523 -0.16772856 -0.14877756 -0.3112848 0.19316183 -0.18210456 0.15253414 -0.1560155 -0.02295653 -0.13336538 0.02864194 0.18888934 0.3268364 -0.07776185 0.028084248 0.26742205 -0.32196283 0.11455946 0.12420145 0.1958805 0.20943935 0.26022825 -0.13683821 -0.24428734 0.018248733 0.045295436 0.124070786 -0.13886121 0.037020117 0.07077057 -0.20741767 -0.114196286 -0.11484871 -0.1950272 -0.103671975 0.16472772 0.00020168931 -0.14219227 -0.18823668 -0.116711855 -0.029828042 0.06099642 0.15518008 -0.27308658 0.20198439 0.32389376 0.06831029 -0.14168867 0.26193956 0.088979304 0.24533567 -0.09126186 -0.20786206 -0.1874039 -0.017342266 0.33246475
12 0.19075747 -0.38498604 0.026588853 -0.05904428 -0.10023367 0.15941367 0.3520718 0.03597242 0.026455387 0.12807553 -0.034528922 -0.06397877 0.10649142 0.04180407 -0.22978978 0.21337429 0.25930256 0.1828907 -0.097138256 -0.13381384 0.211678 0.060089927 -0.28820696 -0.12439016 -0.07294784 0.041930724 0.017009791 0.1520089 0.0077725984 0.41178438 -0.042130623 -0.2478823 0.02994185 -0.17068362 0.1400219 -0.060408708 0.09654117 0.015945515 -0.0023052301 0.01567071 0.041127935 -0.25274724 -0.06115324 -0.088014536 0.038312357 -0.29075336 0.19056603 -0.13834818 -0.10207242 0.088470004 -0.020548213 -0.06349783 0.1714437 0.119789384 -0.12205986 -0.19909081 0.3113558 0.24326651 -0.00047037486 -0.057132397 -0.12927899 0.14639609 -0.17841496 0.1376667
