34 64
34 0.008218734 0.17565228 0.0877628 -0.13276085 -0.14985076 0.1048702 -0.2132654 0.08926159 -0.22519271 0.076739036 0.08768233 -0.2853727 0.12498981 -0.2080708 0.031879593 0.0819358 -0.36584663 0.07134621 -0.052438747 0.007586598 0.061848767 -0.1344104 0.1581024 0.17678949 -0.21887688 0.13079445 0.3124677 -0.20445567 0.29959837 0.14556888 -0.41152918 0.27509165 -0.18873453 0.0012112552 -0.28621528 0.056656647 0.012412999 -0.090334006 -0.12830319 0.06812198 -0.016181147 -0.28567246 -0.15338281 0.06850152 -0.19503376 0.0022326983 0.04189735 0.19871777 -0.053504378 -0.15817773 -0.03852765 0.057041198 0.1557661 -0.20468843 0.19723806 0.039588854 -0.07080104 -0.3031008 -0.17921993 -0.20035493 -0.07804727 -0.008017278 -0.07980579 0.024766814
1 0.017038599 0.046143603 -0.09530062 0.194156 -0.38232607 0.013313074 -0.06536035 0.086844794 -0.08583062 0.051847797 0.18239924 -0.048278347 -0.015179125 -0.08367855 0.04904716 0.010766172 -0.17984045 -0.011089653 -0.20506296 0.37604073 0.017012345 -0.34392285 0.17279537 0.07153644 -0.0061493786 -0.098156765 0.020629382 -0.0792214 0.2837243 0.18976204 -0.15160902 0.049390245 -0.136431 -0.1470467 -0.06336439 0.043650042 -0.18006279 0.19586532 -0.0552331 0.07432389 0.07728008 0.022639966 -0.2661845 0.06587852 0.037829258 0.023127615 0.11924977 0.31322086 -0.26188785 0.1721116 -0.13018377 -0.11183593 0.23027565 -0.36915755 0.14020866 -0.08425784 -0.13556215 -0.27637327 -0.016327191 -0.007356069 -0.04446709 0.12810677 -0.12147003 -0.075440444
33 0.02439108 0.20546614 0.092244595 -0.17286563 -0.13950618 0.10086727 -0.20923062 0.09133621 -0.22100852 0.099608295 0.078188986 -0.31616333 0.10562425 -0.22303033 0.024357392 0.09726132 -0.35374418 0.11865902 -0.019237038 0.022564035 0.08044855 -0.119401634 0.14132664 0.17908391 -0.23669104 0.12858409 0.37477264 -0.22058362 0.29274604 0.15006107 -0.43535566 0.29184532 -0.18261327 0.00034837157 -0.2839858 0.061275575 0.004446544 -0.0914975 -0.10695603 0.03241675 -0.032894377 -0.2906418 -0.17566794 0.10732526 -0.23533489 0.045994997 0.038012415 0.19766423 -0.03899657 -0.16161509 -0.037329588 0.063839376 0.14382312 -0.16254942 0.16894656 0.048222166 -0.058829837 -0.2956927 -0.17051388 -0.20144144 -0.08548054 0.033293866 -0.090121195 0.01840912
3 0.080092646 0.021270636 0.014937429 0.020739632 -0.21440965 0.077460766 -0.15305614 0.05749912 -0.14678815 0.011190343 0.12202173 -0.104783125 0.091354705 -0.11003115 0.020182105 -0.018082513 -0.35440084 -0.021750897 -0.18586354 0.17728372 0.058199428 -0.25257972 0.16645609 0.1498645 -0.049456187 0.058765907 0.078676686 -0.08631684 0.3083379 0.09117011 -0.22118808 0.1391041 -0.16867144 -0.073872745 -0.20087428 0.011636294 -0.022915013 0.040723797 -0.13420391 0.19615808 0.051763505 -0.099735074 -0.1616595 -0.029354904 -0.0049258126 -0.114707515 0.12578763 0.23315106 -0.16526514 -0.041573398 -0.07689387 -0.03235931 0.17082627 -0.40864894 0.21769233 -0.011470479 -0.15830326 -0.26614276 -0.0650627 -0.12434386 -0.03580412 -0.038715538 -0.07964715 0.0014059403
2 -0.14440168 0.027454056 -0.056572635 0.23656973 -0.38009843 0.035178922 -0.16020556 0.07855157 -0.07953552 -0.03222281 0.17879112 -0.012215709 0.052318472 -0.0930029 0.033188716 0.0033245718 -0.2860736 -0.19858243 -0.23718746 0.26442152 -0.06854244 -0.3834285 0.13658021 0.0088639 -0.05393503 -0.020037593 -0.17557839 -0.060768604 0.36752164 0.21634421 -0.17038585 0.0384433 -0.10717867 -0.060077704 -0.06717671 -0.0038764626 -0.07054103 0.1647085 -0.19484334 0.18874444 0.1214897 0.05275765 -0.24994916 -0.05424086 0.18444863 -0.10265011 0.16900563 0.33757082 -0.2673092 0.24652196 -0.12594678 -0.11582135 0.39378765 -0.5510271 0.28326994 -0.09280486 -0.17529608 -0.34867704 -0.13100842 -0.15277651 -0.060688093 -0.02308463 -0.1034065 0.023641514
4 -0.049194198 -0.002928103 0.0006772687 0.15506846 -0.30960232 0.05263626 -0.15455046 0.08010257 -0.0948105 -0.0037831976 0.16388275 -0.03283808 0.051916294 -0.091967545 0.012093497 -0.010163064 -0.29402837 -0.13072842 -0.22431351 0.21487212 -0.001980089 -0.32772666 0.14840262 0.05113483 -0.03893423 0.0007028264 -0.093262956 -0.0408291 0.32982376 0.17711869 -0.18163891 0.045104083 -0.13248579 -0.056410402 -0.10970837 0.03035361 -0.053180873 0.097944334 -0.16300906 0.20508315 0.10894888 -0.011092607 -0.21200246 -0.03513692 0.1420704 -0.13520181 0.15857935 0.2831082 -0.24611773 0.14481294 -0.09234727 -0.07027017 0.30146036 -0.47422478 0.244793 -0.072531335 -0.17154326 -0.3074483 -0.09073862 -0.123416305 -0.04530545 -0.030090405 -0.10518552 -0.017256746
32 0.30094168 0.1045052 0.0033968424 -0.11454297 -0.14404458 0.1464185 -0.08380391 0.045538876 -0.1984854 0.08318877 0.057173774 -0.2156404 0.043800537 -0.14975561 0.05482975 -0.02633972 -0.30464426 0.18084182 -0.120024316 0.2666661 0.13215066 -0.21786666 0.21816042 0.29738823 -0.011459708 0.045890678 0.36676407 -0.167231 0.20500779 0.05121186 -0.26417127 0.18242021 -0.22954085 -0.13615625 -0.24693868 0.049476948 -0.10413746 0.051421925 -0.032474566 0.087474994 -0.03039313 -0.21583746 -0.1790626 0.10850731 -0.22930309 0.03910739 0.061124347 0.2002318 -0.09897085 -0.23582365 -0.029964067 0.006703289 -0.04382217 -0.18158318 0.051629834 0.06883345 -0.07078834 -0.19195245 0.02860692 0.04954767 0.022069972 0.09890556 -0.06138916 -0.070618264
9 -0.0065892665 0.082505606 -0.008671693 0.018978344 -0.24641584 0.024262674 -0.1430355 0.097197115 -0.15292598 0.065831296 0.13745876 -0.16024505 0.06593067 -0.113301024 0.037390143 0.08090048 -0.25803763 0.06072583 -0.12742606 0.1518798 0.05172235 -0.20199026 0.14223103 0.102559686 -0.12411958 0.0050729993 0.18042526 -0.140074 0.27913013 0.14545956 -0.2876118 0.18369289 -0.13403453 -0.05107357 -0.17950484 0.065564066 -0.0566604 0.0072129983 -0.10324428 0.043315016 0.032814 -0.13931537 -0.1650635 0.05455437 -0.06174343 0.006604502 0.07353812 0.23639679 -0.1378748 0.009014068 -0.10752348 -0.033231232 0.20125797 -0.28635904 0.18278445 -0.034483816 -0.11885871 -0.29811105 -0.085359566 -0.13532034 -0.10028868 0.051545423 -0.1283137 -0.008098383
14 -0.0029847058 0.03418731 0.022741083 0.08456914 -0.25370798 0.07145282 -0.15753856 0.06567404 -0.13003278 0.0002227295 0.12226312 -0.09833925 0.076541394 -0.12085154 0.033519477 0.0024972155 -0.30380833 -0.06431704 -0.18936715 0.19432367 0.01961299 -0.2935859 0.16654117 0.09639144 -0.053172715 0.027879225 0.026495773 -0.08624533 0.30798802 0.14446627 -0.21151306 0.096227266 -0.1633138 -0.05836191 -0.1547175 0.01997451 -0.060594346 0.06463705 -0.14604026 0.18076463 0.055106737 -0.08550386 -0.19621815 -0.015702264 0.04219662 -0.10466591 0.11681415 0.2661287 -0.19114335 0.043984022 -0.06736398 -0.05816739 0.23187625 -0.40992755 0.20691916 -0.02495142 -0.15793048 -0.29293424 -0.09210984 -0.12152394 -0.03367052 -0.01036323 -0.07735432 -0.0074808965
24 0.21350135 0.19244233 0.12223952 -0.27831843 -0.054986566 0.21199334 -0.19533136 0.055229846 -0.26556018 0.07920868 0.048102643 -0.34384698 0.12815592 -0.2694442 0.024276957 -0.0039960174 -0.42512807 0.16379909 -0.0039434363 0.041480396 0.15925886 -0.11168873 0.21698599 0.34625605 -0.16006297 0.19593658 0.49878168 -0.22703275 0.2654221 0.07688124 -0.4318698 0.28063968 -0.25599855 -0.039278056 -0.378655 0.07555483 0.015992945 -0.101505116 -0.086365715 0.12928459 -0.08011301 -0.38872176 -0.17309265 0.09764537 -0.3421572 0.014342649 0.0544352 0.1597848 0.012446642 -0.37789372 0.0032673874 0.098760806 -0.011277549 -0.11197019 0.108675525 0.119865105 -0.038171895 -0.2561946 -0.121978045 -0.10573214 -0.01446677 0.060157962 -0.04958576 0.00026380544
6 0.14533879 -0.056803606 -0.3375396 0.32086712 -0.6237416 -0.26877317 0.08206409 0.12063582 -0.055404883 0.20409836 0.35192025 0.010031987 -0.12252842 0.093118645 0.10833512 0.19857556 0.07966481 0.29769838 -0.3010837 0.6143212 0.10473393 -0.34368196 0.16820547 0.0063554286 0.06963074 -0.3607876 0.16889744 -0.09404044 0.27636814 0.16027892 -0.061828744 0.121076316 -0.0061331554 -0.3001921 0.0067790113 0.13863672 -0.30933252 0.21226709 0.052820794 -0.23790093 0.11485995 0.1354694 -0.1975333 0.10987967 0.067604505 0.25019976 0.05326001 0.32294497 -0.3947213 0.33446613 -0.3620443 -0.20672384 0.20584029 -0.31641072 0.13271056 -0.28208664 -0.1563192 -0.32701778 0.2196968 0.14501308 -0.2602389 0.31778497 -0.303093 -0.18851112
7 0.13188481 -0.06466484 -0.3605976 0.37270194 -0.6481209 -0.27977565 0.07594716 0.100172885 -0.05242033 0.19449313 0.34584388 0.023417937 -0.12830967 0.10108783 0.09916265 0.18145992 0.04530911 0.2405895 -0.32713652 0.6325913 0.08322706 -0.3610116 0.16087063 0.002090944 0.080148116 -0.37016356 0.10217082 -0.098985344 0.29030147 0.1596945 -0.044099484 0.09821775 -0.010212751 -0.3062581 0.013785468 0.112653784 -0.30748126 0.23524922 0.04370161 -0.20321989 0.14536771 0.18192682 -0.19677131 0.08714915 0.0907872 0.22900282 0.051513005 0.3423255 -0.426266 0.3642714 -0.37605396 -0.20948638 0.22367595 -0.346877 0.15626761 -0.29068726 -0.15663366 -0.3323721 0.2159468 0.14409965 -0.2498971 0.27802178 -0.2931796 -0.17991783
28 0.19403876 0.13183369 0.13961841 -0.22152391 -0.067603365 0.20139593 -0.17178442 0.091332704 -0.21547513 0.06499948 0.084744 -0.26290283 0.09658072 -0.24609326 -0.0051041003 -0.022944743 -0.38700566 0.1470661 -0.04426345 0.0830714 0.15493642 -0.15985088 0.19694425 0.30815747 -0.11994096 0.1615247 0.3992571 -0.1416332 0.25708422 0.116493925 -0.3884556 0.20808229 -0.24614298 -0.027982114 -0.29518443 0.08661675 -0.034963466 -0.08153228 -0.10483286 0.17721394 -0.026278235 -0.3281518 -0.19021803 0.08673812 -0.22789472 -0.045882687 0.09371647 0.17589231 -0.039740093 -0.2672297 0.032558076 0.079959884 0.016181538 -0.18478078 0.1119676 0.0926464 -0.0914986 -0.24077693 -0.0753172 -0.08236873 0.0027076583 0.049505293 -0.0521501 -0.053014927
31 -0.046302836 0.10027548 0.031268135 -0.011464584 -0.21490689 0.06366314 -0.16238973 0.100060634 -0.13752368 0.063195944 0.12985778 -0.18133919 0.06848466 -0.14393394 0.026911706 0.059305605 -0.28521186 0.030007672 -0.090439714 0.112829626 0.044179805 -0.19112478 0.14447184 0.094067976 -0.16017544 0.044051297 0.1802149 -0.14139926 0.28350404 0.17220142 -0.31972587 0.18645449 -0.13864477 -0.017154768 -0.19291815 0.05887334 -0.034662683 0.00048275248 -0.12846825 0.086151704 0.014627413 -0.16911979 -0.17036065 0.054864526 -0.07905761 -0.00976448 0.07919827 0.22944647 -0.111680694 -0.005926441 -0.08459386 -0.004691733 0.21261004 -0.27637386 0.2012348 -0.024649179 -0.10602792 -0.29542714 -0.1337649 -0.17915839 -0.100210965 0.040496085 -0.11705677 0.01684719
8 -0.0036772725 -0.027401455 -0.024389803 0.17858787 -0.32866398 0.0488267 -0.12103368 0.074374795 -0.07938604 -0.027476108 0.17826582 -0.0055029565 0.03682251 -0.05957537 0.017891413 -0.0067933323 -0.26122668 -0.09727392 -0.24822208 0.29523674 -0.009437131 -0.3754772 0.1746278 0.058809433 0.00012851742 -0.018467657 -0.095146425 -0.029650813 0.3127 0.15634404 -0.14980127 0.038624436 -0.12589157 -0.08006656 -0.090650864 0.026555544 -0.10139929 0.12887195 -0.17354988 0.20160903 0.09539333 -0.0029528327 -0.20435421 -0.048527803 0.1569557 -0.12951064 0.15402783 0.29972866 -0.25795215 0.16111593 -0.091555804 -0.100983664 0.2789419 -0.5182506 0.23155011 -0.064801 -0.21542849 -0.31479692 -0.05444839 -0.081543386 -0.041991677 -0.0016476263 -0.106913835 -0.028663203
30 0.08106696 0.21523449 0.15784076 -0.24058144 -0.091261655 0.16859342 -0.21516228 0.124940954 -0.24426241 0.11326766 0.100450575 -0.33274984 0.12538789 -0.28102228 0.014675691 0.048890032 -0.3599053 0.17720218 0.005428867 -0.018584624 0.13443986 -0.09829773 0.18719429 0.26937115 -0.236082 0.16462271 0.4809657 -0.1951664 0.26951137 0.17175385 -0.4782091 0.27336562 -0.24294959 0.0053223316 -0.3065665 0.10597284 -0.015319306 -0.1452486 -0.08502615 0.09848864 -0.052916914 -0.39054868 -0.18071143 0.12204474 -0.29375008 0.017963108 0.061951846 0.17443794 -0.021598324 -0.25858575 0.019936128 0.101832785 0.07283327 -0.10268588 0.12981302 0.07968378 -0.0424734 -0.29925776 -0.14203405 -0.16176231 -0.05392745 0.075395435 -0.082192816 -0.029353535
25 0.397779 0.10380697 0.050277647 -0.23822974 -0.059605174 0.20952119 -0.104206964 0.05999924 -0.21818122 0.07169959 0.04672452 -0.25828132 0.06355639 -0.20504782 0.03325745 -0.06390387 -0.38279197 0.22071405 -0.07073786 0.25220585 0.1857363 -0.1990668 0.25324568 0.40177888 -0.005984062 0.11543638 0.45613694 -0.1752582 0.20631294 0.017854268 -0.30640495 0.21157898 -0.2620242 -0.12883198 -0.3286325 0.068743736 -0.083925225 0.010837248 -0.035097558 0.16624565 -0.054787353 -0.30182192 -0.17906755 0.095539935 -0.30443996 -0.0026595546 0.07773645 0.18676908 -0.033684984 -0.3748474 -0.012905458 0.053631246 -0.11080159 -0.17345023 0.052199643 0.11702462 -0.09030871 -0.18598694 0.03163447 0.03766019 0.048955526 0.10859531 -0.039734107 -0.062772505
11 0.14467499 -0.065058716 -0.3066587 0.33152938 -0.5823665 -0.21160835 0.06306871 0.09114451 -0.055025306 0.15599348 0.31507123 0.018437125 -0.11650132 0.07131605 0.10222112 0.13875122 0.02320763 0.21616845 -0.30757353 0.5987775 0.07825709 -0.37851343 0.17900157 0.024530966 0.10107853 -0.31958514 0.09273189 -0.080998875 0.2685235 0.14768253 -0.03801352 0.087789826 -0.032344356 -0.27842084 0.011089256 0.103929 -0.28820714 0.24133383 0.024416396 -0.15982214 0.11347203 0.15212606 -0.21461812 0.086763054 0.079275295 0.17927171 0.07303903 0.323492 -0.39438426 0.3132994 -0.32116926 -0.20551895 0.19240934 -0.3615981 0.12813458 -0.24092223 -0.16919841 -0.30112377 0.1979478 0.14398244 -0.19964343 0.2740066 -0.25864363 -0.16939908
5 0.16798566 -0.052777063 -0.33795682 0.34402618 -0.60341334 -0.21369374 0.09047854 0.1083494 -0.04352411 0.16631316 0.3360887 0.034694176 -0.1589319 0.08208192 0.10302233 0.13536601 0.06893668 0.25745937 -0.31415674 0.6686928 0.07456145 -0.38792104 0.18987651 0.028802836 0.10570892 -0.36371762 0.11771945 -0.06947122 0.25104305 0.14991233 -0.031707514 0.067726254 -0.03055099 -0.3124156 0.033221826 0.11397379 -0.34620127 0.2795132 0.06411596 -0.19303918 0.11901244 0.16572715 -0.24173544 0.11076868 0.07135896 0.22464056 0.06744576 0.33870423 -0.3963246 0.33781004 -0.31360167 -0.22493187 0.18172732 -0.3275194 0.09462067 -0.25069448 -0.16392574 -0.29263085 0.22558574 0.18889317 -0.20008726 0.32365245 -0.27141556 -0.20163882
29 0.14888498 0.114341274 0.027322853 -0.11273046 -0.14676522 0.08856819 -0.13140947 0.07926092 -0.1818221 0.08074255 0.0820452 -0.21213019 0.06339228 -0.15328614 0.041020304 0.034727942 -0.29927558 0.13839701 -0.082601815 0.16134311 0.10387152 -0.18508752 0.16155684 0.19808045 -0.093451075 0.053319592 0.29620612 -0.16687208 0.24192145 0.09159751 -0.3020674 0.21665429 -0.1810258 -0.08436234 -0.23631589 0.051736962 -0.057838954 -0.001021594 -0.06353092 0.059755284 -0.016486833 -0.19820173 -0.18134607 0.080939785 -0.1731822 0.016140327 0.065302975 0.19352192 -0.07775708 -0.14730753 -0.059351716 0.023935635 0.060962625 -0.21691678 0.122417614 0.02276517 -0.07895699 -0.23907205 -0.060642276 -0.07791181 -0.041426767 0.05481367 -0.089880995 -0.031660195
20 0.012614547 0.06255436 -0.0417714 0.095977396 -0.29250446 0.022111885 -0.12950413 0.04905299 -0.14312658 0.04042252 0.12381039 -0.11761173 0.044481076 -0.08427897 0.053310655 0.052693725 -0.2435984 -0.013682731 -0.18738714 0.23089227 0.013909169 -0.28372696 0.14176069 0.078220494 -0.057312794 -0.015983395 0.06538884 -0.12720585 0.29432592 0.1394067 -0.19640075 0.13801987 -0.120936975 -0.07903234 -0.12902531 0.0142955035 -0.06986991 0.07676822 -0.11541745 0.07134558 0.052783296 -0.07029447 -0.18632379 0.007563481 0.012914439 0.0029897273 0.08911486 0.26523402 -0.19300264 0.07677954 -0.10235951 -0.05484561 0.22032806 -0.35960418 0.18708993 -0.054563735 -0.11589186 -0.2801966 -0.073760495 -0.08307655 -0.072932355 0.016892817 -0.107321896 -0.0028154152
26 0.36764374 0.16510321 0.04420898 -0.27549568 -0.07005706 0.2021013 -0.09969985 0.07262529 -0.24181321 0.12334661 0.061646905 -0.30154473 0.044872727 -0.2353849 0.025448468 -0.023894118 -0.34988004 0.29666895 -0.03369911 0.19542837 0.20762305 -0.14912212 0.2266763 0.4102738 -0.07067137 0.12606277 0.5683883 -0.18321656 0.19103667 0.04174997 -0.36637616 0.23343618 -0.25492343 -0.10061685 -0.2994693 0.085386544 -0.079781406 -0.0384257 -0.013886346 0.08260545 -0.048143208 -0.35601774 -0.18289658 0.1436608 -0.3684416 0.073306486 0.064612515 0.15956885 -0.01775525 -0.36586785 -0.013423936 0.084041454 -0.12719297 -0.06367792 0.027201569 0.10665298 -0.045266237 -0.19042721 0.03712608 0.045885965 0.009537993 0.15689094 -0.060671516 -0.08338167
17 0.17638735 -0.05433529 -0.41914693 0.36557633 -0.7144882 -0.34148812 0.13284145 0.14601886 -0.032315314 0.27237916 0.43729332 0.013958355 -0.2025382 0.10577499 0.12786068 0.24734873 0.1984992 0.42367992 -0.3016142 0.71631336 0.13833523 -0.35652068 0.19117454 -0.0058026845 0.081904374 -0.468494 0.25378233 -0.08496613 0.27230832 0.20630874 -0.060998846 0.11863912 0.015264505 -0.35995394 0.04825252 0.19119987 -0.3955717 0.26291537 0.12765126 -0.34446123 0.12285739 0.18361445 -0.24324499 0.18004642 0.041074734 0.3541476 0.034819897 0.33564264 -0.4607672 0.39982918 -0.4152826 -0.250166 0.19897862 -0.24534702 0.09233907 -0.35556054 -0.14101589 -0.3498176 0.30108273 0.21768515 -0.31743392 0.44472128 -0.3768435 -0.26467276
10 0.10355883 0.06138809 0.05391387 -0.03118019 -0.18487795 0.106687866 -0.13323759 0.09063618 -0.15291917 0.03937235 0.108829536 -0.14763485 0.06300559 -0.15102047 0.021910757 -0.003644214 -0.28205594 0.05202808 -0.12907465 0.17853741 0.09015161 -0.23505893 0.17792149 0.17039615 -0.06662466 0.046067838 0.18842807 -0.11148844 0.27126884 0.123455875 -0.27511927 0.13864869 -0.17616513 -0.07691757 -0.20286632 0.0643281 -0.07337607 0.024663487 -0.09325933 0.14835268 0.01040317 -0.16908604 -0.18827929 0.057501245 -0.07663009 -0.06108378 0.09013641 0.21836635 -0.1384615 -0.08954953 -0.026562566 -0.0022603648 0.121798754 -0.3000726 0.15120263 0.011726373 -0.12607068 -0.24364255 -0.061988503 -0.07739521 -0.019095177 0.04250962 -0.087802604 -0.051192675
18 -0.07292696 -0.02877725 -0.08952479 0.24726795 -0.402987 -0.013435351 -0.1303003 0.062473174 -0.0789603 -0.02579559 0.17072715 0.004534279 0.042410504 -0.022794925 0.032182284 0.016785689 -0.2591865 -0.16330259 -0.26995903 0.31269413 -0.051594224 -0.38361928 0.14363863 0.012824299 0.0023120013 -0.06503467 -0.17815904 -0.04775487 0.331167 0.15062024 -0.1184633 0.05184125 -0.08805896 -0.07615714 -0.057914574 -0.0015705146 -0.07776009 0.17215174 -0.18211657 0.15044993 0.12887485 0.06990955 -0.19552287 -0.057158016 0.1955775 -0.091845684 0.14838988 0.336935 -0.2877922 0.25638193 -0.15818863 -0.13842466 0.3458176 -0.5580952 0.25581154 -0.104137875 -0.20115101 -0.32156157 -0.075151436 -0.11655456 -0.080912665 -0.01704304 -0.111557625 0.012230969
15 0.009624959 0.20722066 0.1379124 -0.21865752 -0.091824 0.12927602 -0.23985551 0.1012296 -0.24363992 0.10236485 0.071492106 -0.3415429 0.1320116 -0.24729541 0.032296903 0.09797817 -0.3721466 0.112815805 -0.0103320265 -0.04954535 0.087214336 -0.09885487 0.15166683 0.18318869 -0.26488206 0.15434562 0.40406695 -0.22729193 0.3042912 0.16579704 -0.46381244 0.31704032 -0.20527227 0.027963756 -0.32065955 0.07396128 0.026350668 -0.13753173 -0.12919874 0.06024544 -0.06031663 -0.33909124 -0.16826862 0.088115595 -0.24944194 0.020002851 0.037528176 0.16760589 -0.005139019 -0.213774 -0.009321626 0.08236577 0.1390451 -0.153407 0.18104763 0.04972984 -0.047092717 -0.30627158 -0.20031255 -0.23801616 -0.086865336 0.010174905 -0.09009164 0.024177998
21 0.058237847 0.19238982 0.09313509 -0.18728562 -0.11050162 0.1163341 -0.17810418 0.0979931 -0.22296377 0.11849322 0.08111119 -0.30680397 0.08065119 -0.21056147 0.041581724 0.07294354 -0.292703 0.15700962 -0.02392736 0.0314922 0.1025347 -0.09906114 0.15339558 0.18250832 -0.20231739 0.10177174 0.40814975 -0.20658566 0.25416002 0.15627313 -0.41501802 0.27282035 -0.1900558 -0.009521933 -0.27045995 0.09139053 -0.014329349 -0.08891897 -0.081165545 0.032741107 -0.057952985 -0.30822453 -0.17330481 0.11274523 -0.24183844 0.052381463 0.045571595 0.16291156 -0.020013876 -0.18784542 -0.032922547 0.05819131 0.08743307 -0.12364169 0.12637037 0.037356555 -0.047121387 -0.27345136 -0.12787874 -0.15294194 -0.085074216 0.06454398 -0.10351992 -0.0061287642
13 0.055338394 -0.017415924 -0.055585004 0.15638907 -0.31373176 0.023274323 -0.075002566 0.07399804 -0.07924899 0.0032431248 0.17014629 -0.024253672 0.0041874773 -0.042697247 0.026488839 0.00024911686 -0.21657307 -0.033970762 -0.24467236 0.33415192 0.013813934 -0.34880632 0.16545466 0.06918426 0.024483338 -0.063248165 -0.023091642 -0.052100018 0.26807624 0.12523784 -0.11745026 0.05254903 -0.12909476 -0.11811164 -0.074632585 0.029798232 -0.13325894 0.13366513 -0.10970106 0.12903826 0.08704751 0.00815535 -0.21024142 -0.005643402 0.10012785 -0.07148266 0.1269431 0.28621483 -0.244141 0.14426893 -0.10007067 -0.111686066 0.21447812 -0.4359388 0.17536393 -0.071293354 -0.19258712 -0.2686448 0.00064039807 -0.03762173 -0.0491851 0.0476896 -0.113083154 -0.062203757
19 0.071310245 0.16737483 0.10463482 -0.18433009 -0.105923824 0.13941197 -0.20344858 0.09776613 -0.22119515 0.097244814 0.080699235 -0.29589212 0.10725803 -0.22488591 0.030029599 0.06478513 -0.34384727 0.13128537 -0.047700796 0.03135395 0.10801987 -0.1358746 0.16493683 0.20735343 -0.18677357 0.1259182 0.38947114 -0.19510117 0.28317493 0.14527634 -0.41845572 0.2710331 -0.21168894 -0.013010969 -0.29566336 0.08318 -0.010870881 -0.101465434 -0.1037932 0.08301662 -0.03624071 -0.32039863 -0.16945043 0.08789104 -0.23274834 0.008081455 0.059972536 0.18039288 -0.032249436 -0.20780516 -0.01982621 0.06942005 0.09837955 -0.17202473 0.15743612 0.057654362 -0.069364406 -0.28318447 -0.13119549 -0.16450149 -0.0642328 0.033735424 -0.09569781 -0.009910733
22 -0.017569292 -0.011312274 -0.091720514 0.22157525 -0.38174495 -0.009728249 -0.11475693 0.06694839 -0.09371935 0.014385061 0.17767167 -0.018839391 0.032772146 -0.032217287 0.0463512 0.022975849 -0.23954721 -0.08520554 -0.2569517 0.31535026 -0.009754295 -0.3645968 0.147984 0.03858397 -0.0019102126 -0.081490636 -0.0832137 -0.06321745 0.31673697 0.15068619 -0.13739571 0.06735329 -0.1078859 -0.103281125 -0.08431788 0.020151343 -0.09829766 0.14451057 -0.14830048 0.1200494 0.09851843 0.031858828 -0.19504589 -0.025752615 0.13696854 -0.057472114 0.12387731 0.31327137 -0.28593242 0.19872145 -0.14913936 -0.12558697 0.29165798 -0.5006955 0.2309421 -0.108363144 -0.18278882 -0.30423707 -0.041474495 -0.077433646 -0.086403266 0.019448675 -0.12647234 -0.011884475
27 0.10403744 0.20183286 0.12004901 -0.18760136 -0.110255055 0.15129393 -0.1978465 0.062199518 -0.2551615 0.08924403 0.08743741 -0.31179336 0.13045537 -0.2377843 0.027563095 0.061590925 -0.35894188 0.1504166 -0.025989737 0.00287919 0.12081449 -0.11648205 0.18556228 0.25594738 -0.20840941 0.15016712 0.44957533 -0.22170123 0.28895625 0.12224703 -0.41442528 0.2652737 -0.20640427 -0.029003019 -0.31161705 0.06773268 -0.0037162597 -0.13222206 -0.09565048 0.07409168 -0.051006176 -0.3576359 -0.15572515 0.075454734 -0.2712124 0.04430528 0.04806418 0.15911646 -0.017533941 -0.23743266 -0.00970495 0.08438709 0.06631761 -0.1160861 0.122480564 0.073167324 -0.045693304 -0.2972611 -0.14510408 -0.13618532 -0.06259388 0.049086675 -0.08214742 -0.013757821
16 0.048738148 0.20338176 0.111937605 -0.23996292 -0.08625044 0.14537543 -0.22848734 0.09336549 -0.24040592 0.10100183 0.062934496 -0.3396088 0.11948888 -0.25115988 0.037911847 0.06667458 -0.36993507 0.13973323 0.0060805986 -0.018555287 0.11067441 -0.0933518 0.1477959 0.21328767 -0.23517391 0.14992054 0.42454162 -0.21857195 0.28773183 0.13975821 -0.45239824 0.29698297 -0.20393835 0.014805465 -0.3219662 0.075114235 0.028112391 -0.12199922 -0.1153629 0.070325725 -0.07003822 -0.35090816 -0.17380644 0.094412185 -0.26403177 0.02663633 0.053205624 0.16215903 0.0039436724 -0.24451126 -0.025073653 0.07784819 0.106821135 -0.14501408 0.16303952 0.069976635 -0.03614003 -0.2788818 -0.16922604 -0.2028559 -0.082528606 0.03410831 -0.097661674 0.020450111
23 0.06512026 0.18272685 0.10310796 -0.18882465 -0.10495783 0.1318655 -0.19370128 0.099166386 -0.21383078 0.0964356 0.0795032 -0.3058677 0.1076347 -0.23380442 0.03713095 0.06952397 -0.34740672 0.13237347 -0.03837113 0.034702767 0.09391811 -0.121700265 0.16979164 0.20153953 -0.20469627 0.13538018 0.3788773 -0.20371272 0.2778998 0.14785221 -0.42124155 0.27111265 -0.20489831 -0.011612485 -0.28102264 0.076927006 -0.014111049 -0.09134049 -0.1121903 0.07951522 -0.045410447 -0.31899497 -0.17296918 0.093764104 -0.23725341 0.016751552 0.051909763 0.188302 -0.031106668 -0.1912084 -0.019747525 0.06616935 0.098423734 -0.1654231 0.14707011 0.056793593 -0.05816438 -0.27941963 -0.13614324 -0.16830207 -0.067446865 0.038361438 -0.09256471 -0.0014684977
12 0.043857336 -0.013884679 -0.1639432 0.22562376 -0.42025855 -0.076329276 -0.03817837 0.07095805 -0.073966466 0.073764496 0.20220844 -0.01545712 -0.018708574 0.003021123 0.060600553 0.062743224 -0.12726098 0.03741151 -0.25250843 0.39986396 0.025287583 -0.33466786 0.14043419 0.03509162 0.026514675 -0.15731496 0.007150513 -0.086141355 0.2699571 0.1423895 -0.100567766 0.07066313 -0.07072173 -0.1521018 -0.048549853 0.047612846 -0.15426944 0.16236241 -0.07598463 -0.008821686 0.10309276 0.060661495 -0.18519832 0.02204457 0.10144135 0.045355555 0.09631025 0.28712517 -0.28316855 0.21370542 -0.18567263 -0.1307083 0.2301014 -0.38214448 0.17001814 -0.13144845 -0.14796099 -0.28684762 0.0433793 0.01315283 -0.10956797 0.09696101 -0.16758707 -0.06971921
